%YAML:1.0
---
opencv_ml_svm:
   format: 3
   svmType: C_SVC
   kernel:
      type: RBF
      gamma: 5.0000000000000000e-01
   C: 30.
   term_criteria: { epsilon:1.1920928955078125e-07, iterations:1000 }
   var_count: 100
   class_count: 2
   class_labels: !!opencv-matrix
      rows: 2
      cols: 1
      dt: i
      data: [ 0, 1 ]
   sv_total: 485
   support_vectors:
      - [ 9.09090936e-02, 0., 0., 0., 0., 0., 0., 0., 0., 0., 0., 0., 0.,
          0., 0., 0., 0., 0., 0., 0., 0., 0., 0., 0., 0., 0., 0., 0., 0.,
          9.09090936e-02, 0., 9.09090936e-02, 0., 0., 0., 9.09090936e-02,
          0., 0., 0., 0., 0., 0., 0., 0., 0., 0., 9.09090936e-02, 0., 0.,
          0., 0., 0., 0., 0., 0., 9.09090936e-02, 0., 0., 0., 0., 0., 0.,
          0., 0., 0., 0., 0., 0., 0., 0., 0., 0., 0., 0., 0., 0., 0., 0.,
          0., 0., 9.09090936e-02, 0., 0., 0., 0., 0., 0., 0.,
          1.81818187e-01, 0., 0., 0., 9.09090936e-02, 9.09090936e-02, 0.,
          0., 0., 0., 0., 0. ]
      - [ 0., 0., 0., 0., 0., 8.33333358e-02, 0., 0., 0., 0., 0., 0., 0.,
          0., 0., 8.33333358e-02, 0., 0., 0., 0., 0., 0., 0., 0., 0., 0.,
          0., 0., 0., 0., 0., 0., 0., 0., 0., 0., 0., 0., 0., 0.,
          1.66666672e-01, 0., 0., 0., 0., 0., 0., 0., 0., 0., 0., 0., 0.,
          0., 0., 0., 0., 1.66666672e-01, 0., 0., 0., 0., 0., 0., 0., 0.,
          0., 0., 0., 0., 0., 0., 0., 0., 0., 0., 8.33333358e-02, 0., 0.,
          0., 0., 1.66666672e-01, 0., 0., 0., 0., 0., 0., 0.,
          8.33333358e-02, 0., 0., 0., 0., 0., 0., 8.33333358e-02,
          8.33333358e-02, 0., 0. ]
      - [ 0., 0., 0., 0., 0., 0., 0., 0., 0., 0., 0., 0., 0., 0.,
          3.33333343e-01, 0., 0., 6.66666687e-01, 0., 0., 0., 0., 0., 0.,
          0., 0., 0., 0., 0., 0., 0., 0., 0., 0., 0., 0., 0., 0., 0., 0.,
          0., 0., 0., 0., 0., 0., 0., 0., 0., 0., 0., 0., 0., 0., 0., 0.,
          0., 0., 0., 0., 0., 0., 0., 0., 0., 0., 0., 0., 0., 0., 0., 0.,
          0., 0., 0., 0., 0., 0., 0., 0., 0., 0., 0., 0., 0., 0., 0., 0.,
          0., 0., 0., 0., 0., 0., 0., 0., 0., 0., 0., 0. ]
      - [ 0., 0., 0., 0., 0., 0., 5.88235296e-02, 0., 0., 0.,
          5.88235296e-02, 0., 0., 5.88235296e-02, 0., 0., 0., 0., 0., 0.,
          0., 0., 0., 0., 0., 0., 5.88235296e-02, 0., 0., 0., 0., 0., 0.,
          0., 0., 5.88235296e-02, 0., 0., 0., 0., 0., 0., 0., 0.,
          5.88235296e-02, 5.88235296e-02, 5.88235296e-02, 0., 0.,
          5.88235296e-02, 0., 5.88235296e-02, 0., 5.88235296e-02, 0., 0.,
          0., 0., 0., 0., 0., 0., 0., 0., 0., 0., 0., 0., 0., 0., 0., 0.,
          0., 0., 0., 0., 5.88235296e-02, 0., 0., 0., 0., 0., 0., 0., 0.,
          0., 5.88235296e-02, 0., 0., 0., 0., 0., 0., 0., 0., 0.,
          1.76470593e-01, 5.88235296e-02, 0., 0. ]
      - [ 0., 0., 5.88235296e-02, 0., 0., 0., 0., 0., 0., 0., 0., 0., 0.,
          0., 5.88235296e-02, 0., 0., 0., 0., 0., 0., 0., 0.,
          5.88235296e-02, 1.17647059e-01, 0., 5.88235296e-02,
          5.88235296e-02, 0., 0., 0., 0., 0., 5.88235296e-02,
          5.88235296e-02, 0., 0., 0., 0., 0., 0., 0., 5.88235296e-02, 0.,
          5.88235296e-02, 0., 5.88235296e-02, 0., 0., 0., 0., 0., 0., 0.,
          0., 0., 5.88235296e-02, 0., 0., 0., 0., 0., 0., 0., 0., 0., 0.,
          0., 0., 0., 0., 0., 5.88235296e-02, 0., 0., 0., 0., 0., 0.,
          5.88235296e-02, 5.88235296e-02, 0., 0., 5.88235296e-02, 0., 0.,
          0., 0., 0., 0., 0., 0., 0., 0., 0., 0., 0., 0., 0., 0. ]
      - [ 5.26315793e-02, 0., 0., 0., 0., 0., 0., 0., 5.26315793e-02, 0.,
          0., 0., 0., 0., 0., 0., 0., 0., 0., 0., 0., 1.05263159e-01, 0.,
          0., 0., 1.05263159e-01, 0., 0., 0., 0., 0., 0., 0., 0., 0.,
          5.26315793e-02, 5.26315793e-02, 0., 0., 0., 0., 0.,
          5.26315793e-02, 0., 0., 0., 0., 0., 0., 1.57894731e-01, 0., 0.,
          0., 0., 0., 0., 0., 0., 0., 0., 0., 0., 0., 0., 5.26315793e-02,
          5.26315793e-02, 0., 0., 0., 0., 0., 0., 0., 0., 5.26315793e-02,
          5.26315793e-02, 5.26315793e-02, 0., 0., 0., 0., 1.05263159e-01,
          0., 0., 0., 0., 0., 0., 0., 0., 0., 0., 0., 0., 0., 0., 0., 0.,
          0., 0. ]
      - [ 0., 0., 0., 0., 0., 0., 0., 0., 0., 0., 0., 0., 0., 0., 0., 0.,
          0., 0., 0., 0., 0., 0., 0., 0., 0., 0., 0., 0., 0., 0., 0., 0.,
          0., 0., 0., 0., 0., 5.00000000e-01, 0., 0., 0., 0., 0., 0., 0.,
          0., 0., 0., 0., 0., 0., 0., 0., 0., 0., 0., 0., 0., 0., 0., 0.,
          0., 0., 0., 0., 0., 0., 0., 0., 0., 0., 0., 0., 0.,
          5.00000000e-01, 0., 0., 0., 0., 0., 0., 0., 0., 0., 0., 0., 0.,
          0., 0., 0., 0., 0., 0., 0., 0., 0., 0., 0., 0., 0. ]
      - [ 0., 0., 0., 0., 0., 0., 0., 0., 0., 0., 0., 0., 0., 0., 0., 0.,
          0., 0., 0., 0., 0., 0., 0., 0., 0., 0., 0., 0., 0., 0., 0.,
          1.66666672e-01, 0., 0., 0., 0., 0., 0., 0., 0., 0., 0., 0., 0.,
          0., 0., 0., 0., 0., 0., 0., 0., 0., 0., 1.66666672e-01, 0., 0.,
          0., 0., 1.66666672e-01, 0., 0., 0., 0., 0., 0., 0., 0., 0., 0.,
          0., 0., 0., 0., 0., 0., 0., 0., 1.66666672e-01, 0., 0., 0., 0.,
          0., 0., 3.33333343e-01, 0., 0., 0., 0., 0., 0., 0., 0., 0., 0.,
          0., 0., 0., 0. ]
      - [ 5.00000007e-02, 0., 0., 0., 5.00000007e-02, 0., 0., 0.,
          1.00000001e-01, 1.00000001e-01, 0., 0., 0., 0., 0., 0., 0., 0.,
          0., 0., 5.00000007e-02, 0., 0., 0., 0., 0., 0., 1.00000001e-01,
          0., 0., 5.00000007e-02, 5.00000007e-02, 0., 0., 0., 0., 0., 0.,
          5.00000007e-02, 0., 0., 0., 0., 5.00000007e-02, 0., 0., 0.,
          1.00000001e-01, 0., 0., 0., 0., 0., 0., 0., 0., 0., 0., 0., 0.,
          5.00000007e-02, 0., 0., 0., 0., 5.00000007e-02, 0., 0.,
          5.00000007e-02, 0., 0., 0., 0., 0., 0., 0., 5.00000007e-02, 0.,
          0., 0., 0., 0., 0., 0., 0., 0., 0., 0., 0., 0., 0.,
          5.00000007e-02, 0., 0., 0., 0., 0., 0., 0., 0. ]
      - [ 0., 0., 0., 0., 0., 0., 0., 0., 0., 0., 0., 0., 0., 0., 0., 0.,
          5.00000007e-02, 0., 0., 1.00000001e-01, 0., 0., 1.50000006e-01,
          0., 0., 5.00000007e-02, 0., 0., 0., 0., 5.00000007e-02, 0., 0.,
          0., 0., 5.00000007e-02, 0., 0., 0., 0., 0., 0., 0., 0., 0., 0.,
          0., 0., 0., 5.00000007e-02, 0., 0., 0., 0., 0., 0., 0., 0., 0.,
          5.00000007e-02, 0., 5.00000007e-02, 0., 0., 5.00000007e-02, 0.,
          0., 0., 0., 0., 0., 0., 0., 0., 0., 0., 0., 0., 0., 0., 0.,
          5.00000007e-02, 0., 0., 0., 5.00000007e-02, 0., 0., 0., 0., 0.,
          0., 0., 5.00000007e-02, 1.00000001e-01, 0., 1.00000001e-01, 0.,
          0., 0. ]
      - [ 1.25000000e-01, 0., 0., 0., 0., 0., 1.25000000e-01, 0., 0., 0.,
          0., 0., 0., 0., 0., 0., 0., 0., 0., 0., 0., 0., 0., 0., 0., 0.,
          0., 0., 0., 0., 0., 0., 0., 0., 0., 0., 0., 0., 0., 0.,
          2.50000000e-01, 0., 0., 0., 0., 0., 0., 0., 0., 0.,
          1.25000000e-01, 0., 0., 0., 0., 0., 0., 0., 0., 0., 0., 0., 0.,
          0., 0., 0., 0., 0., 0., 0., 0., 0., 0., 0., 0., 1.25000000e-01,
          0., 0., 0., 0., 0., 0., 1.25000000e-01, 0., 0., 0., 0., 0., 0.,
          0., 0., 0., 0., 1.25000000e-01, 0., 0., 0., 0., 0., 0. ]
      - [ 0., 0., 0., 0., 0., 0., 0., 0., 0., 0., 0., 0., 0., 0., 0., 0.,
          0., 0., 1., 0., 0., 0., 0., 0., 0., 0., 0., 0., 0., 0., 0., 0.,
          0., 0., 0., 0., 0., 0., 0., 0., 0., 0., 0., 0., 0., 0., 0., 0.,
          0., 0., 0., 0., 0., 0., 0., 0., 0., 0., 0., 0., 0., 0., 0., 0.,
          0., 0., 0., 0., 0., 0., 0., 0., 0., 0., 0., 0., 0., 0., 0., 0.,
          0., 0., 0., 0., 0., 0., 0., 0., 0., 0., 0., 0., 0., 0., 0., 0.,
          0., 0., 0., 0. ]
      - [ 0., 0., 0., 0., 0., 0., 0., 0., 0., 0., 0., 9.09090936e-02, 0.,
          0., 0., 0., 0., 0., 0., 9.09090936e-02, 0., 0., 0., 0., 0., 0.,
          9.09090936e-02, 0., 0., 0., 0., 0., 0., 0., 0., 0., 0., 0., 0.,
          0., 0., 0., 0., 0., 0., 0., 0., 0., 0., 0., 0., 9.09090936e-02,
          0., 0., 0., 0., 0., 0., 0., 0., 0., 0., 0., 9.09090936e-02, 0.,
          0., 9.09090936e-02, 0., 9.09090936e-02, 0., 0., 0., 0., 0., 0.,
          0., 9.09090936e-02, 0., 0., 0., 0., 0., 0., 0., 0., 0.,
          9.09090936e-02, 0., 0., 0., 0., 0., 0., 0., 0., 1.81818187e-01,
          0., 0., 0., 0. ]
      - [ 0., 0., 0., 0., 0., 0., 0., 0., 6.25000000e-02, 0., 0., 0., 0.,
          0., 0., 0., 0., 6.25000000e-02, 0., 0., 0., 0., 6.25000000e-02,
          0., 0., 0., 0., 0., 6.25000000e-02, 0., 0., 0., 0., 0., 0., 0.,
          0., 6.25000000e-02, 0., 0., 0., 0., 6.25000000e-02,
          6.25000000e-02, 0., 0., 0., 0., 0., 0., 0., 6.25000000e-02, 0.,
          0., 1.25000000e-01, 0., 0., 0., 0., 0., 0., 0., 0., 0., 0., 0.,
          0., 0., 0., 0., 6.25000000e-02, 0., 0., 0., 6.25000000e-02, 0.,
          0., 0., 0., 6.25000000e-02, 0., 0., 0., 0., 0., 6.25000000e-02,
          0., 6.25000000e-02, 0., 0., 6.25000000e-02, 0., 0., 0., 0., 0.,
          0., 0., 0., 0. ]
      - [ 0., 0., 0., 0., 0., 0., 0., 9.09090936e-02, 0., 0., 0., 0., 0.,
          0., 0., 0., 0., 0., 0., 0., 0., 0., 0., 0., 9.09090936e-02, 0.,
          0., 0., 0., 0., 0., 0., 9.09090936e-02, 0., 0., 0., 0., 0.,
          9.09090936e-02, 0., 9.09090936e-02, 0., 0., 9.09090936e-02, 0.,
          0., 0., 0., 0., 0., 0., 9.09090936e-02, 0., 0., 0., 0., 0., 0.,
          0., 0., 0., 0., 0., 0., 0., 0., 9.09090936e-02, 0., 0., 0.,
          9.09090936e-02, 0., 0., 0., 0., 0., 0., 0., 0., 0., 0., 0., 0.,
          0., 0., 0., 0., 0., 0., 0., 0., 0., 0., 0., 0., 1.81818187e-01,
          0., 0., 0., 0. ]
      - [ 0., 0., 0., 0., 0., 0., 0., 0., 0., 0., 0., 0., 0.,
          1.00000001e-01, 0., 0., 0., 0., 0., 0., 0., 0., 0., 0., 0., 0.,
          0., 0., 0., 1.00000001e-01, 1.00000001e-01, 0., 0., 0., 0., 0.,
          0., 0., 0., 0., 0., 0., 0., 0., 1.00000001e-01, 0., 0., 0., 0.,
          0., 1.00000001e-01, 0., 0., 0., 0., 0., 0., 0., 0., 0., 0., 0.,
          0., 0., 0., 0., 0., 0., 0., 1.00000001e-01, 0., 0., 0., 0.,
          1.00000001e-01, 0., 0., 0., 0., 0., 0., 0., 0., 0., 0.,
          2.00000003e-01, 0., 1.00000001e-01, 0., 0., 0., 0., 0., 0., 0.,
          0., 0., 0., 0., 0. ]
      - [ 0., 0., 0., 0., 0., 0., 0., 0., 0., 0., 0., 0., 0., 0., 0., 0.,
          0., 3.33333343e-01, 0., 0., 0., 0., 0., 0., 0., 0., 0., 0., 0.,
          0., 0., 0., 0., 0., 0., 0., 0., 0., 0., 0., 0., 0., 0., 0., 0.,
          0., 0., 0., 3.33333343e-01, 0., 0., 0., 0., 0., 0., 0., 0., 0.,
          0., 0., 0., 0., 0., 0., 0., 0., 0., 3.33333343e-01, 0., 0., 0.,
          0., 0., 0., 0., 0., 0., 0., 0., 0., 0., 0., 0., 0., 0., 0., 0.,
          0., 0., 0., 0., 0., 0., 0., 0., 0., 0., 0., 0., 0. ]
      - [ 0., 0., 0., 0., 0., 0., 0., 0., 0., 0., 0., 0., 0., 0., 0., 0.,
          0., 0., 0., 0., 0., 0., 0., 0., 0., 0., 0., 0., 0., 0., 0., 0.,
          0., 0., 0., 0., 0., 0., 0., 0., 0., 1.42857149e-01, 0., 0., 0.,
          0., 0., 0., 0., 0., 0., 0., 0., 0., 0., 0., 0., 0., 0.,
          2.85714298e-01, 0., 0., 0., 0., 0., 0., 0., 0., 0., 0., 0.,
          1.42857149e-01, 0., 0., 0., 0., 0., 0., 0., 0., 0.,
          4.28571463e-01, 0., 0., 0., 0., 0., 0., 0., 0., 0., 0., 0., 0.,
          0., 0., 0., 0., 0., 0. ]
      - [ 0., 8.33333358e-02, 0., 0., 0., 1.66666672e-01, 0., 0., 0., 0.,
          0., 0., 0., 0., 0., 0., 0., 0., 0., 0., 0., 0., 8.33333358e-02,
          0., 8.33333358e-02, 0., 0., 0., 0., 0., 0., 0., 0., 0., 0., 0.,
          0., 0., 0., 0., 0., 0., 0., 0., 0., 0., 0., 0., 0., 0., 0., 0.,
          8.33333358e-02, 0., 0., 0., 0., 0., 0., 0., 0., 0.,
          8.33333358e-02, 0., 0., 0., 0., 0., 0., 0., 0., 0., 0., 0., 0.,
          0., 0., 8.33333358e-02, 0., 0., 0., 0., 0., 0., 0., 0., 0., 0.,
          0., 0., 8.33333358e-02, 0., 0., 8.33333358e-02, 0.,
          8.33333358e-02, 0., 8.33333358e-02, 0., 0. ]
      - [ 0., 0., 0., 0., 0., 0., 0., 0., 0., 0., 0., 0., 0., 0., 0., 0.,
          0., 0., 0., 0., 0., 0., 0., 0., 0., 0., 1.25000000e-01, 0., 0.,
          0., 0., 0., 2.50000000e-01, 0., 0., 0., 0., 0., 0., 0., 0., 0.,
          0., 0., 0., 0., 0., 0., 1.25000000e-01, 0., 0., 1.25000000e-01,
          0., 0., 0., 0., 0., 0., 0., 0., 0., 0., 0., 0., 1.25000000e-01,
          0., 1.25000000e-01, 0., 0., 0., 0., 0., 0., 0., 0., 0., 0., 0.,
          0., 0., 1.25000000e-01, 0., 0., 0., 0., 0., 0., 0., 0., 0., 0.,
          0., 0., 0., 0., 0., 0., 0., 0., 0. ]
      - [ 3.12500000e-02, 3.12500000e-02, 0., 0., 0., 0., 6.25000000e-02,
          0., 0., 0., 6.25000000e-02, 0., 0., 0., 3.12500000e-02, 0.,
          3.12500000e-02, 3.12500000e-02, 0., 0., 0., 0., 0., 0., 0.,
          3.12500000e-02, 0., 0., 0., 0., 0., 0., 3.12500000e-02, 0., 0.,
          0., 0., 3.12500000e-02, 0., 0., 0., 3.12500000e-02, 0., 0., 0.,
          0., 0., 0., 3.12500000e-02, 6.25000000e-02, 0., 0., 0., 0., 0.,
          3.12500000e-02, 0., 0., 0., 3.12500000e-02, 0., 0., 0.,
          6.25000000e-02, 0., 0., 0., 0., 3.12500000e-02, 0., 0., 0., 0.,
          0., 3.12500000e-02, 0., 0., 0., 0., 0., 3.12500000e-02, 0., 0.,
          6.25000000e-02, 3.12500000e-02, 0., 0., 0., 0., 0., 0.,
          3.12500000e-02, 3.12500000e-02, 0., 3.12500000e-02, 0.,
          3.12500000e-02, 3.12500000e-02, 3.12500000e-02, 0. ]
      - [ 0., 0., 0., 0., 0., 0., 0., 0., 0., 0., 0., 0., 0., 0., 0., 0.,
          0., 0., 0., 0., 0., 0., 0., 0., 0., 0., 0., 0., 0., 0., 0., 0.,
          0., 0., 0., 0., 0., 0., 0., 0., 0., 0., 0., 0., 0., 0., 0., 0.,
          0., 1., 0., 0., 0., 0., 0., 0., 0., 0., 0., 0., 0., 0., 0., 0.,
          0., 0., 0., 0., 0., 0., 0., 0., 0., 0., 0., 0., 0., 0., 0., 0.,
          0., 0., 0., 0., 0., 0., 0., 0., 0., 0., 0., 0., 0., 0., 0., 0.,
          0., 0., 0., 0. ]
      - [ 0., 0., 0., 0., 1.81818187e-01, 0., 0., 0., 0., 0., 0., 0., 0.,
          0., 9.09090936e-02, 0., 0., 0., 0., 9.09090936e-02, 0., 0., 0.,
          9.09090936e-02, 0., 0., 0., 0., 0., 0., 0., 0., 0., 0., 0., 0.,
          0., 0., 0., 0., 0., 0., 0., 0., 0., 0., 0., 0., 0., 0., 0., 0.,
          0., 0., 0., 0., 0., 0., 0., 0., 0., 0., 9.09090936e-02, 0., 0.,
          9.09090936e-02, 0., 0., 0., 0., 9.09090936e-02, 0., 0., 0., 0.,
          0., 0., 0., 0., 0., 0., 0., 0., 9.09090936e-02, 0.,
          9.09090936e-02, 0., 0., 0., 0., 0., 0., 0., 0., 0., 0., 0., 0.,
          9.09090936e-02, 0. ]
      - [ 0., 0., 0., 0., 1.00000001e-01, 0., 0., 0., 0., 0., 0., 0., 0.,
          0., 0., 0., 0., 0., 0., 0., 0., 1.00000001e-01, 0., 0., 0., 0.,
          0., 0., 0., 0., 0., 0., 0., 1.00000001e-01, 0., 0., 0., 0., 0.,
          0., 1.00000001e-01, 0., 0., 0., 0., 0., 0., 0., 0.,
          1.00000001e-01, 0., 0., 0., 0., 0., 0., 0., 0., 0., 0., 0., 0.,
          2.00000003e-01, 0., 0., 0., 0., 0., 1.00000001e-01, 0., 0., 0.,
          0., 0., 1.00000001e-01, 0., 0., 0., 0., 0., 0., 0., 0., 0., 0.,
          0., 0., 0., 0., 0., 0., 0., 0., 0., 0., 0., 0., 1.00000001e-01,
          0., 0. ]
      - [ 0., 0., 0., 0., 0., 0., 0., 0., 0., 0., 0., 0., 0., 0., 0., 0.,
          0., 0., 0., 0., 0., 0., 3.33333343e-01, 0., 0., 0., 0., 0., 0.,
          0., 0., 0., 0., 0., 0., 0., 0., 0., 0., 0., 0., 0., 0., 0., 0.,
          0., 0., 0., 0., 0., 0., 0., 0., 0., 0., 0., 0., 0., 0., 0., 0.,
          0., 1.66666672e-01, 0., 0., 0., 0., 0., 0., 0., 0., 0., 0., 0.,
          0., 0., 0., 0., 0., 0., 0., 0., 0., 0., 0., 0., 0.,
          3.33333343e-01, 0., 0., 0., 0., 0., 0., 1.66666672e-01, 0., 0.,
          0., 0., 0. ]
      - [ 0., 0., 0., 0., 0., 0., 0., 0., 0., 0., 0., 0., 0., 0., 0., 0.,
          0., 0., 0., 0., 0., 0., 0., 0., 0., 5.00000000e-01, 0., 0., 0.,
          0., 0., 0., 0., 0., 0., 0., 0., 0., 0., 0., 0., 0., 0., 0., 0.,
          0., 0., 0., 0., 0., 0., 0., 2.50000000e-01, 0., 0., 0., 0., 0.,
          0., 0., 0., 0., 0., 0., 0., 0., 0., 0., 0., 0., 0., 0., 0., 0.,
          0., 0., 0., 0., 0., 0., 0., 0., 0., 0., 2.50000000e-01, 0., 0.,
          0., 0., 0., 0., 0., 0., 0., 0., 0., 0., 0., 0., 0. ]
      - [ 0., 0., 0., 0., 0., 0., 0., 0., 0., 0., 0., 0., 5.00000000e-01,
          0., 0., 0., 0., 0., 0., 0., 0., 0., 0., 0., 0., 0., 0., 0., 0.,
          0., 0., 0., 0., 0., 0., 0., 0., 0., 0., 0., 0., 0., 0., 0., 0.,
          0., 0., 0., 0., 0., 0., 0., 0., 0., 0., 0., 0., 0., 0., 0., 0.,
          0., 0., 0., 0., 0., 0., 0., 0., 0., 0., 0., 5.00000000e-01, 0.,
          0., 0., 0., 0., 0., 0., 0., 0., 0., 0., 0., 0., 0., 0., 0., 0.,
          0., 0., 0., 0., 0., 0., 0., 0., 0., 0. ]
      - [ 0., 5.00000000e-01, 0., 0., 0., 0., 0., 0., 0., 0., 0., 0., 0.,
          0., 0., 0., 0., 0., 0., 0., 0., 0., 0., 0., 0., 0., 0., 0., 0.,
          0., 0., 0., 0., 0., 0., 0., 0., 0., 0., 0., 0., 0., 0., 0., 0.,
          0., 0., 0., 0., 0., 0., 0., 0., 0., 0., 0., 0., 0., 0., 0., 0.,
          0., 0., 0., 0., 0., 0., 0., 0., 0., 0., 0., 0., 0., 0., 0., 0.,
          0., 0., 0., 0., 0., 0., 0., 0., 0., 0., 0., 0., 0., 0., 0., 0.,
          0., 5.00000000e-01, 0., 0., 0., 0., 0. ]
      - [ 0., 0., 0., 0., 0., 0., 4.16666679e-02, 0., 0., 0., 0., 0., 0.,
          0., 0., 0., 0., 0., 0., 0., 0., 0., 0., 0., 0., 0., 0.,
          4.16666679e-02, 0., 0., 0., 0., 0., 4.16666679e-02, 0.,
          1.25000000e-01, 4.16666679e-02, 0., 4.16666679e-02, 0., 0., 0.,
          0., 0., 0., 0., 8.33333358e-02, 0., 4.16666679e-02,
          4.16666679e-02, 0., 4.16666679e-02, 0., 0., 0., 0., 0., 0., 0.,
          4.16666679e-02, 4.16666679e-02, 0., 0., 0., 0., 0., 0., 0.,
          4.16666679e-02, 0., 0., 0., 0., 0., 0., 8.33333358e-02, 0., 0.,
          0., 0., 0., 0., 0., 0., 0., 0., 4.16666679e-02, 0., 0., 0., 0.,
          1.66666672e-01, 0., 0., 0., 0., 0., 0., 4.16666679e-02, 0. ]
      - [ 0., 0., 0., 0., 0., 0., 0., 0., 0., 0., 0., 0., 0., 0., 0., 0.,
          0., 0., 0., 5.55555560e-02, 0., 0., 5.55555560e-02, 0., 0.,
          5.55555560e-02, 0., 0., 5.55555560e-02, 0., 0., 0., 0., 0., 0.,
          0., 0., 1.11111112e-01, 0., 5.55555560e-02, 0., 0., 0., 0., 0.,
          5.55555560e-02, 0., 0., 0., 0., 0., 5.55555560e-02, 0., 0.,
          5.55555560e-02, 5.55555560e-02, 0., 1.11111112e-01, 0., 0.,
          5.55555560e-02, 0., 0., 5.55555560e-02, 0., 0., 0., 0., 0., 0.,
          0., 0., 0., 0., 0., 0., 0., 0., 0., 0., 0., 5.55555560e-02, 0.,
          0., 0., 0., 5.55555560e-02, 0., 0., 0., 0., 0., 0., 0., 0.,
          5.55555560e-02, 0., 0., 0., 0. ]
      - [ 0., 0., 0., 0., 8.33333358e-02, 8.33333358e-02, 0., 0., 0., 0.,
          0., 0., 0., 0., 8.33333358e-02, 0., 0., 0., 0., 0., 0., 0., 0.,
          0., 0., 0., 0., 0., 0., 0., 0., 0., 8.33333358e-02, 0.,
          8.33333358e-02, 0., 0., 0., 0., 0., 0., 0., 0., 0., 0., 0., 0.,
          0., 0., 8.33333358e-02, 0., 0., 0., 0., 0., 0., 0., 0., 0., 0.,
          0., 0., 0., 0., 0., 0., 0., 0., 0., 0., 0., 0., 0.,
          8.33333358e-02, 1.66666672e-01, 0., 0., 0., 0., 0., 0., 0., 0.,
          0., 0., 0., 0., 0., 0., 0., 1.66666672e-01, 8.33333358e-02, 0.,
          0., 0., 0., 0., 0., 0., 0. ]
      - [ 9.09090936e-02, 0., 0., 0., 0., 0., 0., 0., 0., 0., 0., 0., 0.,
          0., 0., 0., 9.09090936e-02, 0., 0., 9.09090936e-02, 0., 0., 0.,
          0., 0., 0., 0., 9.09090936e-02, 0., 0., 0., 0., 0.,
          9.09090936e-02, 0., 9.09090936e-02, 0., 0., 0., 0., 0., 0.,
          9.09090936e-02, 0., 0., 0., 0., 0., 0., 0., 0., 0., 0., 0., 0.,
          0., 0., 0., 0., 0., 0., 0., 0., 0., 0., 0., 0., 0., 0., 0., 0.,
          0., 0., 0., 0., 0., 0., 0., 0., 0., 0., 0., 0., 0., 0.,
          9.09090936e-02, 0., 0., 9.09090936e-02, 0., 9.09090936e-02, 0.,
          0., 0., 0., 9.09090936e-02, 0., 0., 0., 0. ]
      - [ 0., 0., 0., 1.66666672e-01, 0., 0., 0., 0., 0., 1.66666672e-01,
          0., 0., 0., 0., 0., 0., 0., 0., 0., 1.66666672e-01, 0., 0., 0.,
          0., 0., 0., 0., 0., 0., 0., 0., 0., 0., 0., 0., 0., 0., 0., 0.,
          0., 0., 0., 0., 0., 1.66666672e-01, 0., 0., 0., 0., 0., 0., 0.,
          0., 0., 0., 0., 0., 0., 0., 0., 0., 0., 0., 0., 0., 0., 0.,
          1.66666672e-01, 0., 0., 0., 0., 0., 0., 0., 0., 0., 0., 0.,
          1.66666672e-01, 0., 0., 0., 0., 0., 0., 0., 0., 0., 0., 0., 0.,
          0., 0., 0., 0., 0., 0., 0., 0. ]
      - [ 0., 0., 0., 0., 0., 6.66666701e-02, 6.66666701e-02,
          6.66666701e-02, 0., 6.66666701e-02, 0., 0., 0., 0., 0., 0., 0.,
          0., 0., 0., 0., 0., 0., 0., 0., 0., 0., 0., 0., 0., 0.,
          6.66666701e-02, 0., 0., 0., 0., 0., 0., 0., 0., 0., 0., 0., 0.,
          0., 0., 6.66666701e-02, 6.66666701e-02, 0., 0., 0., 0., 0., 0.,
          0., 6.66666701e-02, 0., 0., 0., 6.66666701e-02, 0., 0., 0., 0.,
          0., 0., 0., 0., 0., 0., 0., 0., 0., 6.66666701e-02, 0., 0., 0.,
          0., 0., 0., 0., 0., 0., 0., 0., 0., 6.66666701e-02, 0.,
          6.66666701e-02, 0., 0., 0., 0., 1.33333340e-01, 0., 0., 0.,
          6.66666701e-02, 0., 0. ]
      - [ 0., 0., 0., 0., 0., 0., 0., 0., 0., 0., 0., 0., 0., 0., 0., 0.,
          0., 0., 1.66666672e-01, 0., 0., 0., 0., 0., 0., 0., 0., 0., 0.,
          0., 1.66666672e-01, 0., 0., 0., 0., 0., 0., 0., 0., 0., 0.,
          1.66666672e-01, 0., 0., 0., 0., 0., 0., 0., 0., 0., 0., 0., 0.,
          0., 3.33333343e-01, 0., 0., 0., 0., 0., 0., 0., 0., 0., 0., 0.,
          0., 0., 0., 0., 0., 0., 0., 0., 0., 0., 1.66666672e-01, 0., 0.,
          0., 0., 0., 0., 0., 0., 0., 0., 0., 0., 0., 0., 0., 0., 0., 0.,
          0., 0., 0., 0. ]
      - [ 0., 0., 0., 0., 0., 0., 0., 0., 0., 0., 0., 0., 0., 0., 0., 0.,
          0., 0., 0., 0., 0., 0., 0., 0., 0., 0., 0., 0., 0., 0., 0., 0.,
          0., 0., 0., 0., 0., 0., 0., 0., 0., 0., 0., 0., 0., 0., 0., 0.,
          0., 0., 0., 0., 2.50000000e-01, 0., 0., 2.50000000e-01, 0., 0.,
          0., 0., 0., 0., 0., 0., 0., 0., 0., 0., 0., 0., 0., 0., 0., 0.,
          0., 0., 0., 0., 2.50000000e-01, 0., 0., 0., 0., 0., 0., 0., 0.,
          0., 2.50000000e-01, 0., 0., 0., 0., 0., 0., 0., 0., 0., 0., 0. ]
      - [ 0., 0., 0., 0., 0., 0., 0., 0., 0., 0., 2.50000000e-01, 0., 0.,
          0., 0., 0., 0., 0., 0., 0., 0., 0., 0., 0., 0., 2.50000000e-01,
          0., 0., 0., 0., 0., 0., 0., 0., 0., 0., 0., 0., 0., 0.,
          2.50000000e-01, 0., 0., 0., 0., 0., 0., 0., 0., 0., 0., 0., 0.,
          0., 0., 0., 0., 0., 0., 0., 0., 0., 0., 0., 0., 0., 0., 0., 0.,
          0., 0., 2.50000000e-01, 0., 0., 0., 0., 0., 0., 0., 0., 0., 0.,
          0., 0., 0., 0., 0., 0., 0., 0., 0., 0., 0., 0., 0., 0., 0., 0.,
          0., 0. ]
      - [ 6.25000000e-02, 0., 0., 0., 0., 0., 0., 0., 0., 0.,
          6.25000000e-02, 0., 0., 0., 0., 0., 0., 0., 0., 0., 0., 0., 0.,
          0., 0., 0., 0., 0., 6.25000000e-02, 0., 0., 0., 0., 0., 0., 0.,
          0., 0., 0., 0., 6.25000000e-02, 0., 6.25000000e-02, 0., 0., 0.,
          0., 0., 6.25000000e-02, 0., 6.25000000e-02, 0., 0.,
          6.25000000e-02, 0., 6.25000000e-02, 0., 0., 0., 6.25000000e-02,
          0., 0., 0., 0., 0., 0., 0., 0., 0., 0., 0., 0., 0., 0., 0., 0.,
          0., 0., 0., 0., 0., 6.25000000e-02, 0., 0., 0., 0.,
          1.25000000e-01, 0., 6.25000000e-02, 0., 0., 0., 0., 0., 0.,
          1.25000000e-01, 0., 0., 0., 0. ]
      - [ 0., 0., 0., 0., 0., 0., 0., 0., 0., 0., 0., 0., 0., 0., 0., 0.,
          0., 0., 0., 0., 0., 0., 0., 1.25000000e-01, 0., 0., 0., 0., 0.,
          1.25000000e-01, 1.25000000e-01, 0., 0., 0., 0., 0., 0., 0., 0.,
          0., 0., 0., 0., 0., 0., 0., 0., 1.25000000e-01, 0., 0., 0., 0.,
          1.25000000e-01, 0., 0., 0., 0., 1.25000000e-01, 0., 0., 0., 0.,
          0., 0., 0., 0., 0., 0., 0., 0., 0., 0., 0., 0., 0., 0., 0., 0.,
          0., 0., 0., 0., 0., 0., 1.25000000e-01, 0., 0., 0., 0., 0., 0.,
          0., 0., 0., 0., 0., 0., 0., 1.25000000e-01, 0. ]
      - [ 0., 0., 0., 0., 0., 0., 0., 0., 0., 0., 0., 0., 0., 0.,
          7.69230798e-02, 0., 0., 7.69230798e-02, 0., 0., 0., 0., 0., 0.,
          7.69230798e-02, 0., 0., 0., 0., 0., 0., 0., 0., 0.,
          7.69230798e-02, 7.69230798e-02, 0., 0., 7.69230798e-02, 0., 0.,
          0., 0., 0., 0., 0., 0., 0., 0., 0., 0., 0., 0., 0., 0., 0.,
          7.69230798e-02, 0., 0., 0., 0., 0., 0., 0., 0., 0., 0., 0., 0.,
          0., 0., 0., 7.69230798e-02, 0., 0., 0., 0., 0., 0., 0., 0., 0.,
          0., 1.53846160e-01, 0., 0., 0., 0., 0., 0., 0., 0., 0., 0., 0.,
          0., 0., 0., 1.53846160e-01, 7.69230798e-02 ]
      - [ 0., 0., 0., 0., 0., 0., 0., 0., 0., 2.00000003e-01, 0., 0., 0.,
          0., 0., 0., 0., 0., 0., 0., 0., 0., 0., 0., 0., 1.00000001e-01,
          0., 0., 0., 0., 0., 0., 0., 0., 0., 0., 1.00000001e-01, 0., 0.,
          0., 0., 0., 0., 0., 1.00000001e-01, 0., 0., 0., 0.,
          2.00000003e-01, 0., 0., 0., 0., 0., 2.00000003e-01, 0., 0., 0.,
          1.00000001e-01, 0., 0., 0., 0., 0., 0., 0., 0., 0., 0., 0., 0.,
          0., 0., 0., 0., 0., 0., 0., 0., 0., 0., 0., 0., 0., 0., 0., 0.,
          0., 0., 0., 0., 0., 0., 0., 0., 0., 0., 0., 0. ]
      - [ 0., 0., 0., 0., 0., 0., 0., 0., 5.00000007e-02, 0.,
          5.00000007e-02, 0., 0., 0., 5.00000007e-02, 0., 0., 0., 0., 0.,
          5.00000007e-02, 0., 0., 0., 0., 0., 5.00000007e-02,
          5.00000007e-02, 0., 0., 5.00000007e-02, 0., 0., 0.,
          5.00000007e-02, 0., 0., 0., 5.00000007e-02, 0., 0., 0., 0., 0.,
          0., 0., 5.00000007e-02, 5.00000007e-02, 0., 0., 0., 0., 0., 0.,
          0., 0., 0., 0., 0., 0., 0., 0., 0., 0., 0., 0., 0., 0., 0.,
          1.00000001e-01, 0., 0., 0., 0., 0., 0., 0., 5.00000007e-02, 0.,
          0., 5.00000007e-02, 0., 0., 0., 0., 0., 0., 0., 0., 0.,
          5.00000007e-02, 0., 0., 0., 5.00000007e-02, 0., 0., 0., 0.,
          1.50000006e-01 ]
      - [ 7.14285746e-02, 0., 0., 0., 7.14285746e-02, 0., 0., 0., 0., 0.,
          0., 0., 7.14285746e-02, 0., 0., 7.14285746e-02, 0., 0., 0., 0.,
          0., 0., 0., 0., 0., 0., 0., 0., 7.14285746e-02, 0., 0., 0., 0.,
          0., 0., 0., 7.14285746e-02, 0., 0., 0., 0., 0., 7.14285746e-02,
          0., 0., 0., 7.14285746e-02, 0., 0., 7.14285746e-02, 0., 0., 0.,
          0., 0., 0., 0., 0., 0., 0., 0., 0., 0., 0., 7.14285746e-02, 0.,
          0., 0., 0., 0., 0., 0., 0., 7.14285746e-02, 0., 0.,
          7.14285746e-02, 0., 7.14285746e-02, 7.14285746e-02, 0., 0., 0.,
          0., 0., 0., 0., 0., 0., 0., 0., 0., 0., 0., 0., 0., 0., 0., 0.,
          0. ]
      - [ 0., 0., 0., 0., 0., 0., 0., 0., 0., 2.00000003e-01, 0., 0., 0.,
          0., 0., 0., 0., 0., 0., 0., 0., 0., 0., 0., 0., 0., 0., 0., 0.,
          0., 0., 0., 0., 0., 0., 0., 0., 0., 0., 2.00000003e-01, 0., 0.,
          0., 0., 0., 0., 0., 0., 0., 0., 0., 0., 0., 0., 0., 0., 0., 0.,
          0., 2.00000003e-01, 0., 0., 0., 0., 0., 0., 0., 0., 0., 0., 0.,
          0., 0., 0., 0., 2.00000003e-01, 0., 0., 0., 0., 0., 0., 0., 0.,
          0., 0., 0., 2.00000003e-01, 0., 0., 0., 0., 0., 0., 0., 0., 0.,
          0., 0., 0. ]
      - [ 0., 0., 1.15384623e-01, 7.69230798e-02, 0., 0., 0.,
          3.84615399e-02, 3.84615399e-02, 3.84615399e-02, 0., 0., 0., 0.,
          0., 0., 3.84615399e-02, 0., 0., 3.84615399e-02, 3.84615399e-02,
          0., 0., 0., 3.84615399e-02, 0., 3.84615399e-02, 0., 0., 0., 0.,
          0., 0., 3.84615399e-02, 0., 0., 0., 0., 0., 0., 0., 0., 0., 0.,
          3.84615399e-02, 0., 0., 0., 0., 0., 3.84615399e-02, 0., 0., 0.,
          0., 0., 0., 0., 0., 0., 0., 0., 0., 3.84615399e-02, 0., 0., 0.,
          3.84615399e-02, 0., 3.84615399e-02, 0., 0., 0., 0., 0., 0., 0.,
          0., 0., 7.69230798e-02, 0., 0., 3.84615399e-02, 0.,
          3.84615399e-02, 0., 3.84615399e-02, 0., 0., 0., 3.84615399e-02,
          0., 0., 0., 0., 0., 0., 0., 3.84615399e-02, 0. ]
      - [ 0., 0., 0., 4.54545468e-02, 4.54545468e-02, 0., 0.,
          4.54545468e-02, 0., 0., 0., 0., 0., 0., 9.09090936e-02, 0., 0.,
          0., 0., 0., 0., 0., 0., 4.54545468e-02, 0., 0., 0., 0., 0., 0.,
          4.54545468e-02, 0., 0., 0., 4.54545468e-02, 0., 0., 0.,
          4.54545468e-02, 4.54545468e-02, 0., 0., 0., 0., 0., 0., 0., 0.,
          0., 0., 4.54545468e-02, 9.09090936e-02, 0., 4.54545468e-02, 0.,
          0., 4.54545468e-02, 0., 4.54545468e-02, 4.54545468e-02, 0., 0.,
          4.54545468e-02, 0., 0., 0., 0., 0., 0., 0., 0., 0., 0., 0., 0.,
          0., 0., 0., 0., 4.54545468e-02, 0., 0., 0., 0., 4.54545468e-02,
          0., 0., 4.54545468e-02, 0., 0., 0., 0., 4.54545468e-02, 0., 0.,
          0., 0., 0., 0., 0. ]
      - [ 0., 0., 0., 0., 0., 0., 0., 0., 0., 0., 0., 0., 0., 0., 0., 0.,
          0., 0., 0., 0., 0., 0., 0., 0., 0., 0., 0., 0., 2.00000003e-01,
          0., 0., 0., 0., 0., 0., 0., 0., 0., 0., 0., 2.00000003e-01, 0.,
          0., 0., 0., 0., 0., 2.00000003e-01, 0., 0., 0., 0., 0., 0., 0.,
          0., 0., 2.00000003e-01, 0., 0., 0., 0., 0., 0., 0., 0., 0., 0.,
          0., 0., 0., 0., 0., 0., 0., 0., 0., 0., 0., 0., 0., 0., 0., 0.,
          0., 0., 0., 0., 0., 0., 0., 0., 2.00000003e-01, 0., 0., 0., 0.,
          0., 0., 0. ]
      - [ 0., 2.50000000e-01, 0., 0., 0., 0., 0., 0., 0., 0., 0., 0., 0.,
          0., 0., 0., 0., 0., 0., 0., 0., 0., 0., 0., 0., 0., 0., 0., 0.,
          0., 2.50000000e-01, 0., 0., 0., 0., 0., 0., 0., 0.,
          2.50000000e-01, 0., 0., 2.50000000e-01, 0., 0., 0., 0., 0., 0.,
          0., 0., 0., 0., 0., 0., 0., 0., 0., 0., 0., 0., 0., 0., 0., 0.,
          0., 0., 0., 0., 0., 0., 0., 0., 0., 0., 0., 0., 0., 0., 0., 0.,
          0., 0., 0., 0., 0., 0., 0., 0., 0., 0., 0., 0., 0., 0., 0., 0.,
          0., 0., 0. ]
      - [ 0., 0., 0., 0., 0., 0., 0., 0., 0., 0., 0., 0., 0., 0.,
          1.25000000e-01, 0., 0., 1.25000000e-01, 0., 0., 0., 0., 0., 0.,
          0., 0., 0., 0., 0., 0., 0., 0., 0., 0., 0., 0., 0., 0., 0., 0.,
          0., 0., 0., 0., 0., 0., 0., 0., 1.25000000e-01, 0., 0., 0., 0.,
          0., 0., 0., 0., 0., 0., 0., 0., 0., 0., 0., 0., 0., 0., 0., 0.,
          0., 0., 0., 1.25000000e-01, 0., 0., 0., 0., 0., 0., 0.,
          1.25000000e-01, 0., 0., 0., 0., 0., 0., 0., 0., 0., 0., 0., 0.,
          0., 0., 0., 0., 0., 0., 3.75000000e-01 ]
      - [ 2.00000003e-01, 0., 0., 0., 0., 0., 0., 1.00000001e-01, 0., 0.,
          1.00000001e-01, 0., 0., 0., 0., 0., 0., 0., 0., 0., 0., 0., 0.,
          0., 0., 0., 0., 0., 0., 0., 0., 0., 0., 0., 1.00000001e-01, 0.,
          0., 0., 0., 0., 1.00000001e-01, 0., 0., 0., 0., 0., 0., 0., 0.,
          0., 0., 0., 0., 0., 0., 0., 0., 0., 0., 0., 0., 0., 0., 0., 0.,
          0., 0., 0., 0., 0., 0., 0., 0., 0., 0., 1.00000001e-01, 0., 0.,
          0., 0., 0., 0., 0., 0., 0., 0., 0., 0., 0., 0., 0., 0.,
          1.00000001e-01, 2.00000003e-01, 0., 0., 0., 0., 0., 0. ]
      - [ 0., 1.42857149e-01, 0., 0., 0., 0., 0., 0., 0., 0., 0., 0., 0.,
          0., 0., 0., 0., 0., 0., 0., 0., 0., 0., 0., 0., 0., 0., 0., 0.,
          0., 0., 0., 0., 0., 0., 0., 0., 0., 0., 0., 0., 0., 0., 0.,
          1.42857149e-01, 0., 0., 0., 0., 0., 0., 0., 0., 0.,
          1.42857149e-01, 0., 0., 0., 0., 0., 0., 0., 0., 0., 0., 0., 0.,
          1.42857149e-01, 0., 0., 0., 0., 0., 0., 0., 0., 0., 0., 0.,
          2.85714298e-01, 0., 0., 0., 0., 0., 0., 0., 0., 0., 0., 0., 0.,
          0., 0., 0., 0., 0., 1.42857149e-01, 0., 0. ]
      - [ 0., 0., 0., 0., 0., 0., 0., 0., 0., 0., 1.42857149e-01, 0., 0.,
          0., 0., 0., 0., 0., 0., 0., 0., 0., 0., 0., 0., 0., 0., 0., 0.,
          0., 0., 0., 0., 0., 0., 0., 0., 0., 2.85714298e-01, 0., 0., 0.,
          0., 0., 0., 0., 1.42857149e-01, 0., 0., 0., 0., 0., 0., 0., 0.,
          0., 0., 0., 0., 0., 0., 0., 0., 0., 0., 0., 0., 1.42857149e-01,
          0., 0., 0., 0., 0., 0., 0., 0., 0., 0., 0., 0., 0., 0.,
          1.42857149e-01, 0., 0., 0., 0., 0., 0., 0., 0., 0., 0.,
          1.42857149e-01, 0., 0., 0., 0., 0., 0. ]
      - [ 0., 0., 0., 0., 0., 0., 0., 0., 0., 0., 0., 0., 0., 0., 0., 0.,
          0., 0., 0., 0., 0., 0., 0., 0., 0., 0., 0., 0., 0., 0., 0., 0.,
          0., 0., 0., 0., 0., 0., 0., 0., 0., 0., 0., 0., 0., 0., 0., 0.,
          0., 0., 0., 0., 0., 0., 0., 0., 0., 0., 0., 0., 0., 0., 0., 0.,
          0., 0., 0., 0., 0., 0., 0., 1., 0., 0., 0., 0., 0., 0., 0., 0.,
          0., 0., 0., 0., 0., 0., 0., 0., 0., 0., 0., 0., 0., 0., 0., 0.,
          0., 0., 0., 0. ]
      - [ 0., 0., 0., 0., 0., 0., 0., 0., 0., 0., 0., 0., 0., 0.,
          8.33333358e-02, 0., 0., 8.33333358e-02, 0., 0., 1.66666672e-01,
          0., 0., 0., 0., 0., 0., 0., 0., 0., 0., 0., 0., 0., 0., 0., 0.,
          0., 0., 0., 0., 0., 8.33333358e-02, 0., 0., 0., 0., 0., 0., 0.,
          0., 0., 0., 0., 0., 0., 0., 0., 0., 0., 0., 0., 0.,
          8.33333358e-02, 8.33333358e-02, 0., 0., 0., 0., 0., 0., 0., 0.,
          0., 0., 0., 0., 0., 0., 0., 0., 0., 0., 0., 0., 0., 0., 0., 0.,
          0., 0., 0., 0., 0., 4.16666687e-01, 0., 0., 0., 0., 0. ]
      - [ 0., 0., 0., 0., 0., 0., 0., 0., 6.66666701e-02, 0.,
          6.66666701e-02, 0., 0., 6.66666701e-02, 0., 0., 0., 0., 0., 0.,
          0., 0., 0., 0., 6.66666701e-02, 0., 0., 0., 0., 0., 0.,
          6.66666701e-02, 6.66666701e-02, 0., 0., 0., 0., 0., 0., 0., 0.,
          0., 6.66666701e-02, 0., 6.66666701e-02, 0., 0., 0., 0.,
          6.66666701e-02, 0., 0., 0., 0., 0., 0., 6.66666701e-02, 0., 0.,
          0., 0., 0., 0., 0., 0., 0., 0., 0., 0., 0., 0., 0.,
          6.66666701e-02, 0., 0., 0., 6.66666701e-02, 0., 0., 0., 0., 0.,
          0., 0., 0., 0., 0., 0., 0., 0., 1.33333340e-01, 6.66666701e-02,
          0., 0., 0., 0., 0., 0., 0., 0. ]
      - [ 0., 2.30769247e-01, 0., 0., 0., 0., 0., 0., 0., 0., 0., 0., 0.,
          0., 0., 0., 0., 0., 0., 0., 0., 0., 0., 0., 0., 0., 0., 0., 0.,
          0., 7.69230798e-02, 0., 0., 0., 0., 0., 0., 0., 0., 0., 0., 0.,
          0., 0., 0., 0., 0., 5.38461566e-01, 0., 0., 0., 0., 0., 0., 0.,
          0., 0., 0., 0., 0., 0., 7.69230798e-02, 0., 0., 0., 0., 0., 0.,
          0., 0., 0., 0., 0., 0., 0., 0., 0., 0., 0., 0., 0., 0., 0., 0.,
          0., 0., 0., 0., 0., 7.69230798e-02, 0., 0., 0., 0., 0., 0., 0.,
          0., 0., 0. ]
      - [ 0., 0., 0., 0., 0., 0., 0., 0., 0., 0., 0., 1.42857149e-01, 0.,
          0., 0., 0., 0., 4.28571463e-01, 0., 0., 0., 1.42857149e-01, 0.,
          0., 0., 0., 0., 0., 0., 0., 0., 0., 0., 0., 0., 0., 0., 0., 0.,
          0., 0., 0., 0., 0., 0., 0., 0., 0., 0., 0., 0., 0., 0., 0., 0.,
          0., 0., 0., 0., 0., 0., 0., 0., 1.42857149e-01, 0., 0., 0., 0.,
          0., 0., 0., 0., 0., 0., 0., 0., 0., 0., 0., 0., 0., 0., 0.,
          1.42857149e-01, 0., 0., 0., 0., 0., 0., 0., 0., 0., 0., 0., 0.,
          0., 0., 0., 0. ]
      - [ 0., 0., 0., 0., 0., 0., 0., 0., 0., 0., 0., 0., 0., 0., 0., 0.,
          0., 0., 0., 0., 0., 0., 0., 0., 0., 0., 0., 0., 0., 0., 0.,
          2.00000003e-01, 0., 0., 0., 0., 2.00000003e-01, 0., 0., 0., 0.,
          0., 0., 0., 0., 0., 0., 0., 0., 2.00000003e-01, 0., 0., 0., 0.,
          0., 0., 0., 0., 0., 0., 0., 0., 0., 0., 0., 0., 0., 0., 0., 0.,
          0., 0., 0., 0., 0., 0., 0., 0., 0., 0., 0., 0., 2.00000003e-01,
          0., 0., 0., 0., 0., 0., 0., 0., 0., 0., 0., 0., 0., 0., 0., 0.,
          2.00000003e-01 ]
      - [ 4.16666679e-02, 0., 0., 0., 0., 4.16666679e-02, 0., 0., 0., 0.,
          4.16666679e-02, 4.16666679e-02, 0., 0., 0., 4.16666679e-02, 0.,
          0., 0., 0., 0., 0., 0., 0., 0., 4.16666679e-02, 0., 0., 0., 0.,
          0., 0., 4.16666679e-02, 0., 4.16666679e-02, 0., 0., 0., 0.,
          8.33333358e-02, 0., 0., 0., 0., 4.16666679e-02, 4.16666679e-02,
          0., 0., 4.16666679e-02, 0., 0., 0., 0., 4.16666679e-02, 0., 0.,
          0., 0., 4.16666679e-02, 8.33333358e-02, 0., 0., 0., 0., 0., 0.,
          4.16666679e-02, 0., 4.16666679e-02, 4.16666679e-02,
          4.16666679e-02, 0., 0., 0., 0., 4.16666679e-02, 0., 0., 0., 0.,
          0., 0., 0., 0., 0., 0., 0., 0., 0., 0., 0., 4.16666679e-02, 0.,
          0., 0., 0., 0., 0., 4.16666679e-02, 0. ]
      - [ 0., 0., 0., 0., 0., 1.66666672e-01, 0., 0., 0., 0., 0., 0., 0.,
          1.66666672e-01, 0., 0., 0., 0., 0., 0., 0., 0., 0., 0., 0., 0.,
          0., 0., 0., 0., 0., 0., 0., 0., 0., 0., 0., 0., 0., 0., 0., 0.,
          0., 0., 0., 1.66666672e-01, 0., 0., 0., 0., 0., 0.,
          1.66666672e-01, 0., 0., 0., 0., 0., 0., 0., 0., 0., 0., 0., 0.,
          0., 0., 0., 0., 0., 0., 0., 0., 0., 0., 0., 0., 0., 0., 0., 0.,
          0., 0., 0., 0., 0., 0., 0., 0., 1.66666672e-01, 0., 0., 0., 0.,
          0., 1.66666672e-01, 0., 0., 0., 0. ]
      - [ 0., 3.12500000e-02, 0., 0., 3.12500000e-02, 0., 0.,
          3.12500000e-02, 0., 3.12500000e-02, 0., 0., 0., 3.12500000e-02,
          0., 0., 3.12500000e-02, 0., 0., 3.12500000e-02, 0., 0.,
          3.12500000e-02, 0., 0., 0., 0., 3.12500000e-02, 3.12500000e-02,
          0., 3.12500000e-02, 0., 0., 0., 0., 0., 6.25000000e-02, 0., 0.,
          0., 0., 0., 3.12500000e-02, 0., 3.12500000e-02, 0., 0.,
          3.12500000e-02, 0., 0., 3.12500000e-02, 0., 3.12500000e-02, 0.,
          0., 0., 0., 3.12500000e-02, 0., 0., 0., 0., 0., 0.,
          3.12500000e-02, 0., 3.12500000e-02, 0., 0., 3.12500000e-02, 0.,
          0., 0., 0., 0., 0., 0., 0., 0., 0., 3.12500000e-02, 0.,
          3.12500000e-02, 3.12500000e-02, 0., 3.12500000e-02,
          3.12500000e-02, 0., 0., 0., 3.12500000e-02, 3.12500000e-02,
          3.12500000e-02, 0., 0., 3.12500000e-02, 0., 0., 3.12500000e-02,
          0. ]
      - [ 1.66666672e-01, 0., 0., 0., 0., 0., 0., 0., 0., 0., 0., 0., 0.,
          0., 0., 0., 0., 0., 0., 0., 0., 0., 0., 1.66666672e-01, 0., 0.,
          0., 0., 0., 0., 0., 0., 0., 1.66666672e-01, 0., 0.,
          1.66666672e-01, 0., 1.66666672e-01, 0., 0., 1.66666672e-01, 0.,
          0., 0., 0., 0., 0., 0., 0., 0., 0., 0., 0., 0., 0., 0., 0., 0.,
          0., 0., 0., 0., 0., 0., 0., 0., 0., 0., 0., 0., 0., 0., 0., 0.,
          0., 0., 0., 0., 0., 0., 0., 0., 0., 0., 0., 0., 0., 0., 0., 0.,
          0., 0., 0., 0., 0., 0., 0., 0., 0. ]
      - [ 4.76190485e-02, 0., 2.38095243e-02, 0., 0., 0., 2.38095243e-02,
          0., 4.76190485e-02, 0., 4.76190485e-02, 0., 0., 0., 0.,
          2.38095243e-02, 2.38095243e-02, 0., 0., 2.38095243e-02, 0.,
          2.38095243e-02, 9.52380970e-02, 0., 0., 0., 0., 2.38095243e-02,
          0., 2.38095243e-02, 0., 4.76190485e-02, 0., 2.38095243e-02,
          2.38095243e-02, 0., 2.38095243e-02, 0., 0., 0., 0., 0.,
          2.38095243e-02, 0., 0., 0., 2.38095243e-02, 0., 2.38095243e-02,
          0., 0., 0., 0., 0., 2.38095243e-02, 0., 2.38095243e-02, 0., 0.,
          0., 0., 0., 0., 2.38095243e-02, 0., 0., 0., 0., 0.,
          2.38095243e-02, 0., 0., 2.38095243e-02, 4.76190485e-02, 0., 0.,
          0., 0., 2.38095243e-02, 0., 0., 4.76190485e-02, 0., 0.,
          2.38095243e-02, 0., 0., 0., 2.38095243e-02, 0., 0., 0., 0., 0.,
          7.14285746e-02, 0., 0., 2.38095243e-02, 0., 0. ]
      - [ 0., 0., 0., 0., 0., 0., 0., 0., 0., 0., 9.09090936e-02, 0., 0.,
          0., 0., 0., 0., 0., 0., 0., 0., 0., 1.81818187e-01, 0., 0., 0.,
          0., 0., 0., 0., 0., 0., 0., 0., 0., 0., 0., 0., 0., 0., 0., 0.,
          0., 0., 0., 0., 0., 0., 0., 0., 0., 0., 0., 0., 0., 0., 0.,
          9.09090936e-02, 0., 0., 0., 0., 0., 0., 0., 0., 0., 0.,
          9.09090936e-02, 0., 0., 9.09090936e-02, 0., 0., 9.09090936e-02,
          0., 0., 0., 0., 0., 0., 0., 0., 0., 0., 0., 0., 9.09090936e-02,
          0., 0., 0., 0., 0., 0., 9.09090936e-02, 0., 9.09090936e-02,
          9.09090936e-02, 0., 0. ]
      - [ 0., 0., 0., 0., 0., 0., 0., 0., 0., 5.88235296e-02, 0., 0., 0.,
          0., 0., 0., 0., 0., 0., 0., 0., 0., 0., 0., 0., 1.17647059e-01,
          0., 5.88235296e-02, 0., 5.88235296e-02, 0., 0., 0., 0., 0., 0.,
          5.88235296e-02, 0., 0., 0., 0., 0., 0., 0., 0., 0., 0., 0., 0.,
          5.88235296e-02, 0., 0., 0., 0., 0., 0., 0., 0., 0.,
          5.88235296e-02, 0., 0., 0., 0., 0., 0., 0., 0., 1.17647059e-01,
          0., 0., 0., 0., 0., 0., 0., 0., 1.17647059e-01, 0., 0., 0.,
          5.88235296e-02, 0., 0., 5.88235296e-02, 0., 0., 5.88235296e-02,
          0., 0., 0., 0., 0., 0., 0., 0., 5.88235296e-02, 0., 0.,
          5.88235296e-02 ]
      - [ 0., 0., 0., 0., 0., 0., 0., 1.42857149e-01, 0., 0., 0., 0., 0.,
          0., 0., 0., 0., 0., 0., 0., 0., 0., 1.42857149e-01, 0., 0.,
          1.42857149e-01, 0., 0., 0., 1.42857149e-01, 0., 0., 0.,
          1.42857149e-01, 1.42857149e-01, 0., 0., 0., 0., 0., 0., 0., 0.,
          0., 0., 0., 0., 0., 0., 0., 0., 0., 0., 0., 0., 0., 0., 0., 0.,
          0., 0., 0., 0., 0., 0., 0., 0., 0., 0., 1.42857149e-01, 0., 0.,
          0., 0., 0., 0., 0., 0., 0., 0., 0., 0., 0., 0., 0., 0., 0., 0.,
          0., 0., 0., 0., 0., 0., 0., 0., 0., 0., 0., 0. ]
      - [ 0., 1.11111112e-01, 0., 0., 0., 2.22222224e-01, 0., 0., 0., 0.,
          0., 0., 0., 0., 0., 0., 0., 0., 0., 0., 0., 0., 0., 0., 0., 0.,
          0., 0., 0., 0., 0., 0., 0., 0., 0., 0., 0., 0., 0., 0.,
          1.11111112e-01, 0., 0., 0., 0., 0., 0., 2.22222224e-01, 0., 0.,
          0., 0., 0., 0., 0., 0., 0., 0., 0., 0., 0., 0., 0., 0., 0., 0.,
          0., 0., 0., 1.11111112e-01, 0., 0., 0., 0., 0., 0., 0., 0., 0.,
          0., 0., 0., 1.11111112e-01, 0., 0., 0., 0., 0., 0.,
          1.11111112e-01, 0., 0., 0., 0., 0., 0., 0., 0., 0., 0. ]
      - [ 0., 0., 0., 0., 0., 0., 0., 0., 0., 0., 0., 0., 0., 0., 0., 0.,
          1.00000001e-01, 0., 1.00000001e-01, 1.00000001e-01,
          2.00000003e-01, 0., 0., 0., 0., 0., 0., 0., 0., 0., 0., 0., 0.,
          0., 0., 0., 0., 0., 1.00000001e-01, 0., 0., 0., 0., 0., 0., 0.,
          0., 0., 0., 0., 0., 0., 0., 0., 0., 0., 0., 1.00000001e-01, 0.,
          0., 0., 0., 0., 0., 0., 0., 0., 0., 0., 0., 1.00000001e-01, 0.,
          0., 1.00000001e-01, 0., 0., 0., 0., 0., 0., 0., 0.,
          1.00000001e-01, 0., 0., 0., 0., 0., 0., 0., 0., 0., 0., 0., 0.,
          0., 0., 0., 0., 0. ]
      - [ 8.33333358e-02, 0., 0., 0., 0., 0., 0., 2.50000000e-01, 0., 0.,
          8.33333358e-02, 0., 0., 0., 0., 0., 0., 0., 0., 0., 0., 0., 0.,
          0., 1.66666672e-01, 0., 0., 0., 0., 0., 0., 0., 0., 0., 0., 0.,
          0., 0., 0., 0., 0., 0., 8.33333358e-02, 0., 0., 0., 0., 0., 0.,
          0., 8.33333358e-02, 0., 0., 0., 0., 0., 0., 1.66666672e-01, 0.,
          0., 0., 0., 0., 0., 0., 0., 0., 0., 0., 0., 0., 0., 0., 0., 0.,
          0., 0., 0., 0., 8.33333358e-02, 0., 0., 0., 0., 0., 0., 0., 0.,
          0., 0., 0., 0., 0., 0., 0., 0., 0., 0., 0., 0. ]
      - [ 0., 0., 0., 0., 1.25000000e-01, 0., 0., 0., 0., 0., 0., 0., 0.,
          0., 0., 0., 0., 0., 0., 0., 0., 0., 1.25000000e-01, 0., 0., 0.,
          0., 0., 0., 0., 0., 0., 0., 0., 0., 0., 0., 0., 0., 0., 0., 0.,
          0., 0., 0., 0., 0., 0., 0., 0., 0., 0., 0., 0., 0., 0., 0., 0.,
          0., 0., 0., 0., 0., 0., 0., 0., 0., 0., 0., 0., 0., 0., 0., 0.,
          1.25000000e-01, 0., 0., 0., 1.25000000e-01, 0., 0., 0.,
          1.25000000e-01, 0., 0., 1.25000000e-01, 0., 0., 0., 0.,
          1.25000000e-01, 0., 0., 0., 0., 0., 0., 0., 0., 1.25000000e-01 ]
      - [ 0., 0., 0., 0., 0., 0., 0., 0., 0., 0., 0., 7.14285746e-02, 0.,
          0., 0., 0., 0., 0., 0., 0., 0., 7.14285746e-02, 4.28571463e-01,
          0., 0., 0., 0., 0., 0., 0., 0., 0., 0., 0., 0., 0., 0., 0., 0.,
          0., 0., 0., 0., 0., 0., 0., 0., 0., 0., 0., 0., 0., 0.,
          1.42857149e-01, 0., 0., 0., 0., 0., 0., 0., 0., 0., 0., 0., 0.,
          0., 0., 0., 0., 0., 0., 0., 0., 7.14285746e-02, 0., 0., 0., 0.,
          0., 0., 0., 0., 0., 0., 0., 0., 0., 0., 0., 0., 0., 0., 0.,
          2.14285731e-01, 0., 0., 0., 0., 0. ]
      - [ 0., 0., 5.71428575e-02, 2.85714287e-02, 0., 2.85714287e-02,
          2.85714287e-02, 0., 0., 5.71428575e-02, 0., 0., 5.71428575e-02,
          0., 0., 0., 0., 0., 0., 2.85714287e-02, 0., 0., 0., 0., 0., 0.,
          5.71428575e-02, 0., 0., 0., 0., 0., 0., 0., 0., 0.,
          2.85714287e-02, 0., 0., 0., 0., 0., 0., 0., 2.85714287e-02, 0.,
          2.85714287e-02, 0., 2.85714287e-02, 5.71428575e-02, 0., 0., 0.,
          0., 0., 2.85714287e-02, 2.85714287e-02, 0., 2.85714287e-02, 0.,
          0., 0., 0., 2.85714287e-02, 2.85714287e-02, 0., 2.85714287e-02,
          0., 0., 2.85714287e-02, 0., 0., 0., 0., 2.85714287e-02,
          2.85714287e-02, 5.71428575e-02, 0., 0., 0., 0., 2.85714287e-02,
          0., 0., 2.85714287e-02, 2.85714287e-02, 0., 0., 0., 0., 0.,
          2.85714287e-02, 0., 2.85714287e-02, 0., 0., 0., 2.85714287e-02,
          0., 0. ]
      - [ 0., 9.52380970e-02, 4.76190485e-02, 4.76190485e-02, 0., 0., 0.,
          0., 0., 4.76190485e-02, 4.76190485e-02, 0., 0., 0.,
          4.76190485e-02, 0., 0., 0., 0., 0., 0., 0., 0., 0., 0.,
          4.76190485e-02, 0., 0., 0., 4.76190485e-02, 9.52380970e-02, 0.,
          0., 0., 0., 0., 0., 0., 0., 0., 0., 0., 0., 0., 0., 0.,
          4.76190485e-02, 0., 0., 0., 4.76190485e-02, 0., 0., 0., 0., 0.,
          0., 0., 0., 4.76190485e-02, 0., 0., 0., 0., 0., 4.76190485e-02,
          0., 0., 0., 0., 0., 4.76190485e-02, 0., 0., 4.76190485e-02, 0.,
          0., 0., 4.76190485e-02, 0., 0., 0., 0., 0., 4.76190485e-02,
          4.76190485e-02, 0., 0., 0., 0., 0., 4.76190485e-02, 0., 0., 0.,
          0., 0., 0., 0., 0. ]
      - [ 0., 0., 0., 0., 0., 0., 0., 0., 0., 0., 0., 0., 0., 0., 0., 0.,
          0., 0., 0., 0., 0., 0., 0., 0., 0., 0., 0., 0., 0., 0., 0., 0.,
          0., 0., 0., 0., 0., 1.11111112e-01, 0., 0., 0., 0., 0.,
          1.11111112e-01, 0., 0., 0., 0., 0., 0., 0., 0., 0., 0., 0., 0.,
          0., 0., 0., 0., 0., 2.22222224e-01, 0., 0., 0., 0., 0., 0., 0.,
          0., 2.22222224e-01, 0., 1.11111112e-01, 0., 0., 0., 0., 0., 0.,
          0., 0., 0., 0., 0., 1.11111112e-01, 0., 0., 0., 0., 0., 0., 0.,
          0., 0., 0., 0., 0., 1.11111112e-01, 0., 0. ]
      - [ 0., 0., 0., 0., 0., 0., 0., 0., 0., 0., 0., 0., 0., 0., 0., 0.,
          0., 0., 0., 0., 0., 0., 0., 0., 0., 0., 0., 0., 0., 0., 0., 0.,
          0., 0., 0., 0., 0., 0., 0., 0., 0., 2.50000000e-01, 0., 0., 0.,
          0., 0., 0., 0., 0., 0., 0., 0., 0., 0., 0., 0., 0., 0., 0., 0.,
          0., 0., 0., 0., 0., 0., 0., 0., 0., 0., 0., 0., 0., 0., 0., 0.,
          0., 0., 2.50000000e-01, 0., 0., 2.50000000e-01, 0., 0.,
          2.50000000e-01, 0., 0., 0., 0., 0., 0., 0., 0., 0., 0., 0., 0.,
          0., 0. ]
      - [ 1.00000001e-01, 0., 0., 0., 0., 0., 0., 1.00000001e-01, 0., 0.,
          1.00000001e-01, 0., 0., 0., 1.00000001e-01, 0., 0., 0., 0., 0.,
          0., 0., 0., 0., 0., 0., 0., 0., 0., 0., 0., 0., 0., 0., 0., 0.,
          0., 0., 1.00000001e-01, 0., 0., 0., 0., 1.00000001e-01, 0., 0.,
          0., 0., 1.00000001e-01, 0., 0., 0., 0., 0., 0., 0.,
          1.00000001e-01, 0., 0., 0., 1.00000001e-01, 0., 0., 0., 0., 0.,
          0., 0., 0., 0., 0., 0., 0., 0., 0., 0., 0., 0., 0.,
          1.00000001e-01, 0., 0., 0., 0., 0., 0., 0., 0., 0., 0., 0., 0.,
          0., 0., 0., 0., 0., 0., 0., 0. ]
      - [ 0., 0., 1.25000000e-01, 0., 0., 0., 1.25000000e-01, 0., 0., 0.,
          0., 0., 0., 0., 0., 0., 0., 0., 0., 0., 0., 1.25000000e-01, 0.,
          0., 0., 0., 0., 0., 0., 0., 0., 0., 0., 0., 0., 0., 0., 0., 0.,
          0., 0., 0., 0., 0., 0., 0., 0., 0., 0., 1.25000000e-01, 0., 0.,
          0., 0., 0., 0., 0., 0., 0., 0., 0., 0., 0., 1.25000000e-01, 0.,
          0., 0., 0., 0., 0., 0., 0., 0., 0., 0., 0., 0., 0., 0., 0., 0.,
          0., 0., 0., 1.25000000e-01, 0., 0., 0., 0., 0., 0., 0., 0., 0.,
          0., 0., 0., 1.25000000e-01, 1.25000000e-01, 0. ]
      - [ 5.26315793e-02, 0., 5.26315793e-02, 0., 0., 0., 0., 0., 0., 0.,
          0., 0., 0., 0., 0., 0., 0., 0., 0., 0., 0., 0., 0., 0., 0., 0.,
          0., 0., 0., 0., 0., 5.26315793e-02, 0., 5.26315793e-02,
          1.05263159e-01, 1.05263159e-01, 0., 0., 5.26315793e-02,
          5.26315793e-02, 0., 0., 0., 0., 0., 0., 0., 0., 0., 0., 0.,
          5.26315793e-02, 0., 0., 0., 0., 5.26315793e-02, 0., 0., 0., 0.,
          0., 0., 0., 0., 5.26315793e-02, 0., 0., 0., 0., 0.,
          5.26315793e-02, 0., 5.26315793e-02, 0., 0., 0., 0.,
          5.26315793e-02, 0., 0., 1.05263159e-01, 0., 0., 0., 0., 0., 0.,
          0., 0., 5.26315793e-02, 0., 0., 0., 0., 0., 0., 0., 0., 0. ]
      - [ 0., 0., 0., 0., 1.66666672e-01, 0., 0., 0., 0., 1.66666672e-01,
          0., 0., 0., 0., 0., 1.66666672e-01, 0., 0., 0., 0., 0., 0., 0.,
          0., 0., 1.66666672e-01, 0., 0., 0., 0., 0., 0., 0., 0., 0., 0.,
          0., 0., 0., 0., 0., 0., 0., 0., 0., 0., 0., 0., 0.,
          1.66666672e-01, 0., 0., 0., 0., 0., 0., 0., 0., 0., 0., 0., 0.,
          0., 0., 0., 0., 0., 0., 0., 0., 0., 0., 0., 0., 0., 0., 0., 0.,
          0., 0., 0., 0., 0., 1.66666672e-01, 0., 0., 0., 0., 0., 0., 0.,
          0., 0., 0., 0., 0., 0., 0., 0., 0. ]
      - [ 1.11111112e-01, 0., 0., 0., 0., 0., 0., 0., 0., 0., 0.,
          1.11111112e-01, 0., 0., 0., 0., 0., 0., 0., 0., 0., 0., 0., 0.,
          0., 0., 0., 0., 0., 1.11111112e-01, 0., 0., 0., 0.,
          1.11111112e-01, 0., 0., 0., 0., 0., 0., 0., 0., 0., 0., 0., 0.,
          0., 1.11111112e-01, 0., 0., 0., 0., 0., 0., 0., 0., 0., 0.,
          1.11111112e-01, 0., 0., 1.11111112e-01, 0., 0., 0.,
          1.11111112e-01, 0., 0., 0., 0., 1.11111112e-01, 0., 0., 0., 0.,
          0., 0., 0., 0., 0., 0., 0., 0., 0., 0., 0., 0., 0., 0., 0., 0.,
          0., 0., 0., 0., 0., 0., 0., 0. ]
      - [ 0., 0., 0., 0., 0., 0., 0., 0., 6.66666701e-02, 6.66666701e-02,
          0., 0., 0., 6.66666701e-02, 0., 6.66666701e-02, 0., 0., 0., 0.,
          0., 6.66666701e-02, 0., 0., 0., 6.66666701e-02, 0., 0., 0., 0.,
          6.66666701e-02, 0., 0., 0., 0., 6.66666701e-02, 0., 0.,
          6.66666701e-02, 0., 0., 0., 0., 6.66666701e-02, 0., 0., 0., 0.,
          0., 0., 0., 0., 0., 0., 0., 0., 0., 0., 0., 6.66666701e-02, 0.,
          0., 0., 0., 6.66666701e-02, 0., 0., 0., 0., 0., 0., 0., 0., 0.,
          0., 0., 0., 0., 0., 0., 0., 0., 0., 0., 1.33333340e-01, 0., 0.,
          0., 0., 0., 0., 0., 0., 0., 0., 0., 0., 0., 6.66666701e-02, 0. ]
      - [ 0., 0., 0., 0., 0., 2.00000003e-01, 0., 0., 2.00000003e-01, 0.,
          0., 0., 0., 0., 0., 0., 0., 0., 0., 0., 0., 0., 0., 0., 0., 0.,
          0., 0., 0., 0., 0., 0., 0., 0., 0., 0., 0., 0., 0., 0., 0., 0.,
          0., 0., 0., 0., 0., 0., 0., 0., 0., 0., 0., 0., 2.00000003e-01,
          0., 0., 0., 0., 0., 0., 0., 0., 2.00000003e-01, 0., 0., 0., 0.,
          0., 0., 0., 0., 0., 0., 0., 0., 0., 0., 0., 0., 0., 0., 0., 0.,
          0., 0., 0., 0., 0., 0., 0., 0., 0., 0., 0., 0., 0.,
          2.00000003e-01, 0., 0. ]
      - [ 0., 0., 0., 0., 5.00000007e-02, 0., 0., 0., 0., 0., 0., 0., 0.,
          0., 5.00000007e-02, 5.00000007e-02, 0., 5.00000007e-02, 0., 0.,
          0., 5.00000007e-02, 5.00000007e-02, 0., 0., 0., 0., 0., 0., 0.,
          0., 0., 0., 0., 5.00000007e-02, 0., 0., 0., 0., 0., 0., 0., 0.,
          0., 0., 0., 0., 0., 0., 0., 0., 5.00000007e-02, 0., 0., 0., 0.,
          0., 0., 0., 0., 0., 0., 0., 0., 0., 0., 0., 1.00000001e-01, 0.,
          0., 0., 0., 0., 0., 0., 0., 5.00000007e-02, 0., 0.,
          1.00000001e-01, 0., 0., 1.00000001e-01, 0., 0., 0., 0.,
          5.00000007e-02, 0., 0., 0., 0., 0., 0., 5.00000007e-02, 0., 0.,
          0., 1.00000001e-01, 5.00000007e-02 ]
      - [ 0., 0., 0., 0., 0., 7.69230798e-02, 0., 0., 0., 0., 0., 0., 0.,
          0., 0., 0., 0., 7.69230798e-02, 0., 0., 0., 0., 0., 0., 0., 0.,
          0., 0., 0., 0., 0., 0., 7.69230798e-02, 0., 7.69230798e-02, 0.,
          0., 0., 0., 0., 0., 0., 0., 0., 0., 0., 0., 0., 7.69230798e-02,
          0., 0., 0., 0., 0., 0., 0., 0., 0., 0., 0., 0., 0., 0., 0., 0.,
          0., 0., 0., 0., 0., 0., 0., 0., 0., 0., 7.69230798e-02,
          7.69230798e-02, 0., 0., 7.69230798e-02, 7.69230798e-02, 0., 0.,
          0., 0., 7.69230798e-02, 0., 7.69230798e-02, 0., 0.,
          7.69230798e-02, 0., 0., 0., 0., 0., 0., 7.69230798e-02, 0., 0. ]
      - [ 0., 0., 0., 0., 7.14285746e-02, 0., 0., 0., 0., 0., 0., 0.,
          7.14285746e-02, 0., 0., 0., 0., 0., 0., 0., 0., 0.,
          2.85714298e-01, 0., 0., 0., 0., 0., 0., 0., 0., 0., 0., 0., 0.,
          0., 7.14285746e-02, 0., 0., 0., 0., 0., 0., 0., 0., 0.,
          7.14285746e-02, 0., 0., 0., 0., 0., 0., 0., 0., 0., 0., 0., 0.,
          1.42857149e-01, 0., 0., 7.14285746e-02, 0., 0., 0., 0., 0., 0.,
          0., 0., 0., 0., 0., 0., 7.14285746e-02, 0., 0., 0., 0., 0., 0.,
          0., 0., 0., 0., 0., 0., 7.14285746e-02, 0., 0., 0., 0., 0.,
          7.14285746e-02, 0., 0., 0., 0., 0. ]
      - [ 0., 8.33333358e-02, 0., 0., 0., 0., 0., 0., 0., 1.66666672e-01,
          0., 0., 0., 0., 8.33333358e-02, 0., 0., 8.33333358e-02,
          8.33333358e-02, 0., 0., 0., 0., 0., 0., 0., 0., 0., 0., 0., 0.,
          0., 0., 0., 0., 0., 0., 0., 0., 0., 0., 0., 0., 0., 0., 0., 0.,
          1.66666672e-01, 0., 0., 0., 0., 0., 0., 0., 0., 0., 0., 0., 0.,
          0., 0., 0., 0., 0., 0., 0., 0., 0., 0., 0., 0., 0., 0., 0., 0.,
          0., 0., 0., 0., 0., 8.33333358e-02, 0., 0., 8.33333358e-02,
          8.33333358e-02, 0., 0., 0., 8.33333358e-02, 0., 0., 0., 0., 0.,
          0., 0., 0., 0., 0. ]
      - [ 0., 0., 0., 0., 0., 0., 0., 0., 0., 0., 0., 0., 0., 0., 0., 0.,
          0., 0., 0., 0., 0., 0., 0., 0., 0., 0., 0., 0., 0., 0., 0., 0.,
          0., 0., 0., 0., 0., 0., 0., 7.69230798e-02, 0., 0., 0., 0., 0.,
          0., 0., 1.53846160e-01, 0., 0., 7.69230798e-02, 0., 0., 0., 0.,
          0., 0., 7.69230798e-02, 0., 0., 0., 0., 0., 0., 0., 0.,
          7.69230798e-02, 7.69230798e-02, 7.69230798e-02, 0.,
          7.69230798e-02, 0., 0., 0., 0., 7.69230798e-02, 0., 0., 0., 0.,
          0., 0., 0., 0., 0., 0., 0., 0., 0., 1.53846160e-01, 0., 0., 0.,
          0., 0., 7.69230798e-02, 0., 0., 0., 0. ]
      - [ 0., 0., 0., 0., 0., 0., 0., 0., 0., 0., 0., 0., 0., 0., 0., 0.,
          0., 0., 0., 0., 0., 0., 0., 0., 0., 0., 0., 0., 0., 0., 0., 0.,
          0., 0., 0., 0., 0., 0., 0., 0., 0., 0., 0., 0., 0., 0., 0., 0.,
          0., 0., 0., 0., 0., 0., 0., 0., 0., 0., 0., 0., 0.,
          2.50000000e-01, 5.00000000e-01, 0., 0., 0., 0., 0., 0., 0., 0.,
          0., 0., 0., 0., 0., 0., 0., 0., 0., 0., 0., 0., 0., 0., 0., 0.,
          0., 0., 0., 0., 0., 0., 0., 0., 2.50000000e-01, 0., 0., 0., 0. ]
      - [ 0., 0., 0., 0., 0., 0., 0., 2.50000000e-01, 0., 0., 0., 0., 0.,
          0., 0., 0., 0., 0., 0., 0., 0., 0., 0., 0., 8.33333358e-02, 0.,
          0., 0., 0., 0., 0., 0., 0., 0., 0., 0., 0., 0., 0., 0., 0.,
          8.33333358e-02, 0., 0., 0., 0., 0., 0., 8.33333358e-02, 0., 0.,
          0., 0., 0., 0., 0., 0., 8.33333358e-02, 0., 0., 0., 0., 0., 0.,
          0., 0., 0., 0., 8.33333358e-02, 0., 0., 0., 0., 0., 0., 0.,
          8.33333358e-02, 0., 0., 0., 0., 8.33333358e-02, 0., 0.,
          8.33333358e-02, 0., 0., 0., 0., 0., 0., 0., 8.33333358e-02, 0.,
          0., 0., 0., 0., 0., 0. ]
      - [ 0., 0., 0., 0., 0., 0., 0., 0., 0., 0., 0., 0., 0., 0., 0., 0.,
          0., 0., 7.14285746e-02, 0., 0., 0., 0., 0., 7.14285746e-02, 0.,
          0., 0., 0., 0., 0., 0., 0., 0., 0., 0., 0., 0., 7.14285746e-02,
          0., 7.14285746e-02, 0., 0., 0., 0., 0., 0., 0., 0., 0., 0.,
          7.14285746e-02, 0., 1.42857149e-01, 0., 0., 0., 0., 0., 0., 0.,
          0., 0., 0., 0., 0., 0., 0., 0., 0., 0., 0., 0., 0., 0., 0., 0.,
          0., 0., 0., 0., 0., 0., 0., 0., 0., 1.42857149e-01, 0., 0.,
          2.85714298e-01, 0., 0., 0., 0., 0., 0., 7.14285746e-02, 0., 0.,
          0. ]
      - [ 0., 0., 0., 0., 0., 0., 0., 0., 0., 0., 0., 0., 0., 0., 0., 0.,
          0., 0., 0., 0., 0., 0., 0., 0., 0., 0., 7.14285746e-02, 0., 0.,
          0., 0., 0., 0., 7.14285746e-02, 0., 2.14285731e-01, 0., 0., 0.,
          0., 0., 0., 7.14285746e-02, 0., 0., 0., 7.14285746e-02, 0., 0.,
          2.14285731e-01, 0., 0., 0., 0., 0., 0., 0., 0., 0., 0., 0., 0.,
          0., 0., 0., 0., 0., 0., 0., 0., 0., 0., 0., 0., 0., 0.,
          7.14285746e-02, 0., 0., 0., 7.14285746e-02, 7.14285746e-02, 0.,
          0., 0., 0., 0., 0., 0., 0., 0., 0., 0., 7.14285746e-02, 0., 0.,
          0., 0., 0., 0. ]
      - [ 1.66666672e-01, 0., 0., 0., 0., 0., 0., 0., 0., 0.,
          3.33333343e-01, 0., 0., 0., 0., 0., 0., 0., 0., 0., 0., 0., 0.,
          0., 0., 0., 0., 0., 0., 0., 0., 1.66666672e-01, 0., 0., 0., 0.,
          0., 0., 0., 0., 0., 0., 0., 0., 0., 0., 0., 0., 0., 0., 0., 0.,
          0., 0., 0., 0., 0., 0., 0., 0., 0., 0., 0., 0., 0., 0., 0., 0.,
          0., 0., 0., 0., 0., 0., 0., 0., 0., 0., 0., 0., 0., 0.,
          1.66666672e-01, 0., 0., 0., 0., 1.66666672e-01, 0., 0., 0., 0.,
          0., 0., 0., 0., 0., 0., 0., 0. ]
      - [ 0., 0., 0., 0., 0., 0., 0., 0., 0., 0., 0., 0., 0., 0., 0., 0.,
          0., 0., 0., 2.50000000e-01, 0., 0., 0., 0., 0., 0., 0., 0., 0.,
          0., 0., 0., 0., 0., 0., 0., 0., 0., 0., 0., 0., 0., 0., 0., 0.,
          0., 0., 0., 0., 0., 0., 0., 0., 0., 0., 0., 2.50000000e-01, 0.,
          0., 0., 0., 0., 0., 0., 0., 0., 0., 0., 0., 0., 0., 0., 0., 0.,
          0., 2.50000000e-01, 0., 0., 0., 0., 0., 0., 0., 2.50000000e-01,
          0., 0., 0., 0., 0., 0., 0., 0., 0., 0., 0., 0., 0., 0., 0., 0. ]
      - [ 0., 0., 6.66666701e-02, 0., 3.33333351e-02, 0., 0., 0.,
          3.33333351e-02, 1.00000009e-01, 3.33333351e-02, 3.33333351e-02,
          3.33333351e-02, 0., 0., 3.33333351e-02, 3.33333351e-02, 0., 0.,
          0., 0., 0., 0., 0., 0., 0., 0., 0., 0., 3.33333351e-02, 0., 0.,
          0., 0., 3.33333351e-02, 0., 0., 3.33333351e-02, 0.,
          3.33333351e-02, 0., 0., 0., 3.33333351e-02, 0., 0.,
          3.33333351e-02, 0., 0., 3.33333351e-02, 0., 3.33333351e-02, 0.,
          0., 0., 0., 0., 0., 0., 0., 0., 3.33333351e-02, 0.,
          3.33333351e-02, 0., 0., 6.66666701e-02, 0., 0., 0.,
          3.33333351e-02, 0., 3.33333351e-02, 0., 0., 3.33333351e-02,
          3.33333351e-02, 0., 0., 0., 3.33333351e-02, 0., 0., 0., 0., 0.,
          0., 0., 0., 0., 0., 0., 0., 0., 0., 0., 3.33333351e-02, 0., 0.,
          0. ]
      - [ 0., 0., 0., 0., 0., 0., 0., 0., 0., 0., 0., 6.66666701e-02, 0.,
          0., 0., 0., 0., 0., 6.66666701e-02, 0., 0., 0., 6.66666701e-02,
          6.66666701e-02, 0., 0., 6.66666701e-02, 0., 0., 0., 0., 0., 0.,
          0., 0., 0., 0., 0., 0., 0., 1.33333340e-01, 0., 0., 0., 0., 0.,
          0., 0., 0., 0., 0., 0., 0., 0., 6.66666701e-02, 0., 0., 0., 0.,
          0., 0., 0., 0., 0., 0., 0., 6.66666701e-02, 0., 0., 0., 0.,
          6.66666701e-02, 0., 0., 0., 0., 0., 0., 0., 6.66666701e-02, 0.,
          0., 0., 0., 0., 0., 0., 0., 0., 0., 0., 0., 0., 0.,
          1.33333340e-01, 6.66666701e-02, 0., 0., 6.66666701e-02, 0. ]
      - [ 0., 0., 0., 0., 0., 0., 6.25000000e-02, 0., 0., 0.,
          6.25000000e-02, 0., 6.25000000e-02, 0., 0., 0., 0., 0., 0., 0.,
          0., 0., 0., 0., 0., 0., 6.25000000e-02, 0., 6.25000000e-02, 0.,
          0., 0., 0., 6.25000000e-02, 0., 0., 6.25000000e-02, 0., 0., 0.,
          0., 0., 6.25000000e-02, 0., 0., 0., 6.25000000e-02, 0., 0.,
          6.25000000e-02, 0., 0., 0., 0., 0., 0., 0., 0., 0., 0., 0., 0.,
          0., 0., 0., 0., 0., 0., 0., 0., 0., 0., 0., 0., 1.25000000e-01,
          0., 6.25000000e-02, 0., 0., 0., 0., 0., 0., 6.25000000e-02, 0.,
          0., 0., 0., 0., 0., 0., 0., 0., 0., 0., 6.25000000e-02, 0.,
          6.25000000e-02, 0., 0. ]
      - [ 0., 0., 0., 0., 0., 0., 0., 0., 0., 0., 0., 0., 0., 0., 0., 0.,
          0., 0., 0., 0., 0., 0., 0., 1.42857149e-01, 0., 0., 0., 0., 0.,
          0., 0., 0., 0., 0., 0., 0., 0., 0., 0., 0., 1.42857149e-01, 0.,
          0., 0., 0., 0., 0., 0., 0., 0., 0., 0., 0., 0., 0., 0., 0., 0.,
          0., 0., 0., 0., 1.42857149e-01, 0., 0., 0., 0., 1.42857149e-01,
          0., 0., 0., 1.42857149e-01, 0., 1.42857149e-01, 0., 0., 0., 0.,
          0., 1.42857149e-01, 0., 0., 0., 0., 0., 0., 0., 0., 0., 0., 0.,
          0., 0., 0., 0., 0., 0., 0., 0., 0. ]
      - [ 0., 0., 0., 0., 6.25000000e-02, 0., 0., 6.25000000e-02, 0., 0.,
          6.25000000e-02, 0., 0., 0., 0., 0., 0., 6.25000000e-02, 0., 0.,
          0., 6.25000000e-02, 0., 0., 0., 0., 0., 0., 0., 0., 0., 0.,
          6.25000000e-02, 0., 0., 0., 0., 0., 0., 6.25000000e-02, 0., 0.,
          0., 0., 0., 0., 0., 0., 0., 0., 0., 0., 0., 0., 6.25000000e-02,
          0., 0., 0., 0., 0., 0., 0., 0., 6.25000000e-02, 0.,
          6.25000000e-02, 6.25000000e-02, 0., 0., 0., 6.25000000e-02,
          6.25000000e-02, 0., 1.25000000e-01, 0., 0., 0., 0., 0., 0.,
          6.25000000e-02, 0., 0., 0., 0., 0., 0., 0., 0., 0., 0., 0., 0.,
          0., 0., 0., 0., 0., 0., 0. ]
      - [ 0., 1.11111112e-01, 0., 1.11111112e-01, 0., 0., 0.,
          2.22222224e-01, 1.11111112e-01, 0., 0., 0., 0., 0., 0., 0., 0.,
          0., 0., 0., 0., 0., 0., 0., 0., 0., 0., 0., 0., 1.11111112e-01,
          0., 0., 0., 0., 0., 0., 0., 0., 0., 0., 0., 0., 0., 0., 0., 0.,
          0., 0., 0., 0., 0., 0., 0., 0., 1.11111112e-01, 0., 0., 0., 0.,
          0., 0., 0., 0., 0., 0., 0., 0., 1.11111112e-01, 0., 0., 0., 0.,
          0., 0., 0., 0., 0., 0., 0., 0., 0., 0., 0., 0., 0., 0., 0., 0.,
          0., 0., 0., 0., 0., 0., 1.11111112e-01, 0., 0., 0., 0., 0. ]
      - [ 0., 0., 0., 0., 0., 4.16666679e-02, 4.16666679e-02, 0., 0., 0.,
          4.16666679e-02, 0., 8.33333358e-02, 0., 4.16666679e-02, 0., 0.,
          0., 0., 0., 0., 0., 0., 0., 0., 4.16666679e-02, 0., 0., 0.,
          4.16666679e-02, 0., 4.16666679e-02, 4.16666679e-02, 0.,
          4.16666679e-02, 0., 0., 4.16666679e-02, 0., 4.16666679e-02, 0.,
          0., 0., 0., 0., 0., 4.16666679e-02, 0., 0., 0., 0., 0., 0.,
          4.16666679e-02, 0., 0., 0., 0., 4.16666679e-02, 0., 0., 0., 0.,
          0., 0., 4.16666679e-02, 0., 0., 0., 0., 0., 0., 0., 0., 0.,
          1.25000000e-01, 0., 0., 0., 0., 0., 0., 0., 0., 0.,
          4.16666679e-02, 0., 0., 0., 0., 0., 4.16666679e-02, 0.,
          4.16666679e-02, 0., 0., 0., 0., 4.16666679e-02, 0. ]
      - [ 0., 0., 5.55555560e-02, 0., 0., 0., 5.55555560e-02, 0., 0.,
          5.55555560e-02, 0., 0., 0., 5.55555560e-02, 0., 0., 0., 0., 0.,
          5.55555560e-02, 0., 0., 0., 0., 0., 0., 5.55555560e-02, 0., 0.,
          0., 0., 0., 5.55555560e-02, 0., 0., 1.11111112e-01, 0., 0.,
          5.55555560e-02, 0., 0., 0., 0., 0., 1.11111112e-01, 0., 0., 0.,
          0., 0., 0., 0., 0., 1.11111112e-01, 0., 5.55555560e-02, 0., 0.,
          0., 0., 0., 0., 0., 0., 0., 0., 0., 0., 0., 0., 0., 0., 0., 0.,
          0., 0., 0., 0., 0., 0., 0., 0., 0., 5.55555560e-02,
          5.55555560e-02, 0., 0., 0., 0., 0., 0., 0., 0., 5.55555560e-02,
          0., 0., 0., 0., 0., 0. ]
      - [ 0., 0., 0., 0., 0., 0., 0., 0., 0., 0., 0., 0., 0., 0., 0., 0.,
          0., 0., 0., 2.00000003e-01, 0., 0., 4.00000006e-01, 0., 0., 0.,
          0., 0., 0., 0., 0., 0., 0., 0., 0., 0., 0., 0., 0., 0., 0., 0.,
          0., 0., 0., 0., 0., 0., 0., 0., 0., 0., 0., 0., 0., 0., 0., 0.,
          0., 0., 0., 0., 0., 0., 0., 0., 0., 0., 2.00000003e-01, 0., 0.,
          2.00000003e-01, 0., 0., 0., 0., 0., 0., 0., 0., 0., 0., 0., 0.,
          0., 0., 0., 0., 0., 0., 0., 0., 0., 0., 0., 0., 0., 0., 0., 0. ]
      - [ 0., 0., 0., 0., 0., 0., 0., 0., 0., 0., 0., 0., 2.50000000e-01,
          0., 0., 0., 0., 2.50000000e-01, 0., 0., 0., 0., 0., 0., 0., 0.,
          0., 0., 0., 0., 0., 0., 0., 0., 0., 0., 0., 0., 0., 0., 0., 0.,
          0., 0., 0., 0., 0., 0., 0., 0., 0., 0., 0., 0., 0., 0., 0., 0.,
          0., 0., 2.50000000e-01, 0., 0., 0., 0., 0., 0., 0., 0., 0., 0.,
          0., 0., 0., 0., 0., 0., 0., 0., 0., 2.50000000e-01, 0., 0., 0.,
          0., 0., 0., 0., 0., 0., 0., 0., 0., 0., 0., 0., 0., 0., 0., 0. ]
      - [ 0., 0., 0., 0., 0., 0., 0., 0., 0., 1.00000001e-01, 0., 0.,
          1.00000001e-01, 0., 0., 0., 0., 0., 0., 0., 0., 0.,
          2.00000003e-01, 0., 0., 0., 0., 0., 0., 0., 0., 0., 0., 0., 0.,
          0., 0., 0., 0., 1.00000001e-01, 0., 1.00000001e-01, 0., 0., 0.,
          0., 0., 0., 0., 0., 0., 0., 0., 0., 0., 0., 0., 0., 0., 0., 0.,
          0., 0., 0., 0., 0., 0., 0., 0., 1.00000001e-01, 0., 0., 0., 0.,
          0., 0., 0., 0., 0., 0., 0., 1.00000001e-01, 0., 0., 0., 0., 0.,
          0., 0., 0., 0., 0., 0., 0., 2.00000003e-01, 0., 0., 0., 0., 0. ]
      - [ 0., 1.00000001e-01, 0., 0., 0., 0., 0., 0., 0., 0., 0., 0., 0.,
          0., 0., 0., 0., 0., 1.00000001e-01, 0., 0., 0., 0., 0., 0., 0.,
          0., 0., 0., 0., 1.00000001e-01, 0., 0., 0., 0., 0., 0., 0., 0.,
          0., 0., 0., 0., 0., 0., 0., 0., 0., 0., 1.00000001e-01, 0., 0.,
          0., 0., 0., 0., 0., 0., 0., 0., 0., 0., 0., 0., 0., 0., 0., 0.,
          0., 0., 0., 0., 0., 0., 0., 0., 0., 0., 0., 0., 0., 0., 0., 0.,
          0., 0., 0., 1.00000001e-01, 0., 1.00000001e-01, 0., 0., 0., 0.,
          1.00000001e-01, 0., 3.00000012e-01, 0., 0., 0. ]
      - [ 0., 0., 9.09090936e-02, 0., 0., 0., 9.09090936e-02, 0.,
          9.09090936e-02, 0., 0., 0., 0., 0., 0., 0., 0., 0.,
          9.09090936e-02, 0., 9.09090936e-02, 0., 9.09090936e-02, 0., 0.,
          0., 0., 0., 0., 0., 0., 0., 0., 0., 0., 0., 0., 0., 0., 0., 0.,
          0., 0., 0., 0., 0., 1.81818187e-01, 0., 0., 0., 0., 0., 0., 0.,
          0., 0., 0., 0., 0., 0., 0., 0., 0., 0., 0., 0., 0., 0.,
          9.09090936e-02, 0., 0., 0., 0., 0., 0., 0., 0., 9.09090936e-02,
          0., 0., 0., 0., 0., 0., 9.09090936e-02, 0., 0., 0., 0., 0., 0.,
          0., 0., 0., 0., 0., 0., 0., 0., 0. ]
      - [ 0., 0., 0., 0., 0., 4.54545468e-02, 0., 0., 0., 0.,
          4.54545468e-02, 0., 0., 4.54545468e-02, 0., 0., 0., 0., 0., 0.,
          0., 0., 9.09090936e-02, 4.54545468e-02, 0., 0., 0., 0., 0., 0.,
          1.81818187e-01, 0., 0., 0., 0., 0., 0., 0., 0., 0., 0., 0., 0.,
          0., 4.54545468e-02, 4.54545468e-02, 0., 4.54545468e-02, 0., 0.,
          0., 0., 0., 0., 0., 0., 4.54545468e-02, 0., 0., 0., 0., 0., 0.,
          0., 0., 4.54545468e-02, 0., 0., 4.54545468e-02, 0., 0., 0., 0.,
          4.54545468e-02, 0., 0., 4.54545468e-02, 4.54545468e-02,
          4.54545468e-02, 0., 0., 0., 0., 0., 0., 0., 0., 0., 0., 0., 0.,
          0., 4.54545468e-02, 0., 0., 0., 0., 4.54545468e-02, 0., 0. ]
      - [ 0., 0., 6.06060624e-02, 0., 0., 0., 3.03030312e-02, 0., 0., 0.,
          0., 0., 6.06060624e-02, 0., 3.03030312e-02, 0., 0.,
          3.03030312e-02, 0., 0., 0., 3.03030312e-02, 0., 0., 0., 0.,
          3.03030312e-02, 0., 0., 3.03030312e-02, 0., 0., 0.,
          3.03030312e-02, 3.03030312e-02, 0., 0., 0., 0., 0., 0., 0., 0.,
          6.06060624e-02, 3.03030312e-02, 0., 0., 0., 3.03030312e-02,
          6.06060624e-02, 0., 3.03030312e-02, 0., 0., 0., 0., 0., 0.,
          3.03030312e-02, 0., 0., 0., 0., 3.03030312e-02, 3.03030312e-02,
          0., 3.03030312e-02, 0., 0., 0., 0., 0., 0., 0., 6.06060624e-02,
          0., 0., 0., 0., 3.03030312e-02, 6.06060624e-02, 0., 0.,
          3.03030312e-02, 0., 3.03030312e-02, 0., 0., 0., 0., 0.,
          6.06060624e-02, 3.03030312e-02, 0., 0., 0., 0., 0., 0., 0. ]
      - [ 1.11111112e-01, 0., 0., 0., 0., 0., 0., 0., 0., 0.,
          1.11111112e-01, 0., 0., 0., 0., 0., 0., 0., 0., 0., 0., 0., 0.,
          0., 0., 1.11111112e-01, 1.11111112e-01, 0., 0., 0., 0., 0., 0.,
          0., 0., 0., 0., 0., 0., 0., 0., 0., 0., 0., 0., 0., 0., 0., 0.,
          0., 0., 0., 1.11111112e-01, 0., 0., 1.11111112e-01, 0., 0., 0.,
          0., 0., 0., 0., 0., 0., 0., 0., 0., 0., 0., 0., 0., 0., 0., 0.,
          0., 0., 0., 0., 0., 0., 0., 0., 0., 0., 0., 1.11111112e-01, 0.,
          0., 0., 0., 2.22222224e-01, 0., 0., 0., 0., 0., 0., 0., 0. ]
      - [ 0., 0., 0., 0., 0., 0., 0., 0., 0., 0., 0., 0., 6.66666701e-02,
          0., 0., 0., 0., 0., 0., 0., 0., 0., 2.00000018e-01, 0., 0., 0.,
          6.66666701e-02, 0., 0., 0., 6.66666701e-02, 0., 0., 0., 0., 0.,
          0., 6.66666701e-02, 0., 0., 0., 6.66666701e-02, 0., 0., 0., 0.,
          0., 0., 0., 0., 0., 0., 0., 0., 0., 0., 0., 0., 6.66666701e-02,
          0., 0., 0., 0., 0., 0., 0., 0., 0., 0., 0., 0., 6.66666701e-02,
          0., 0., 0., 0., 6.66666701e-02, 0., 0., 0., 0., 0., 0., 0., 0.,
          0., 0., 0., 0., 0., 0., 0., 0., 6.66666701e-02, 2.00000018e-01,
          0., 0., 0., 0., 0. ]
      - [ 5.00000007e-02, 0., 2.50000004e-02, 0., 2.50000004e-02,
          2.50000004e-02, 0., 0., 0., 0., 2.50000004e-02, 0.,
          2.50000004e-02, 2.50000004e-02, 0., 2.50000004e-02, 0., 0., 0.,
          0., 0., 0., 2.50000004e-02, 0., 0., 2.50000004e-02,
          2.50000004e-02, 0., 0., 2.50000004e-02, 0., 7.50000030e-02, 0.,
          0., 2.50000004e-02, 2.50000004e-02, 0., 5.00000007e-02, 0., 0.,
          0., 0., 0., 2.50000004e-02, 0., 0., 0., 0., 0., 0., 0., 0., 0.,
          2.50000004e-02, 0., 0., 7.50000030e-02, 0., 0., 2.50000004e-02,
          2.50000004e-02, 0., 2.50000004e-02, 0., 0., 5.00000007e-02, 0.,
          2.50000004e-02, 0., 0., 0., 0., 0., 0., 2.50000004e-02,
          5.00000007e-02, 2.50000004e-02, 0., 0., 0., 0., 2.50000004e-02,
          2.50000004e-02, 0., 0., 2.50000004e-02, 0., 2.50000004e-02, 0.,
          0., 0., 0., 0., 0., 0., 0., 0., 0., 2.50000004e-02, 0. ]
      - [ 0., 0., 0., 0., 0., 0., 0., 0., 0., 2.50000000e-01, 0., 0., 0.,
          0., 0., 0., 0., 2.50000000e-01, 0., 0., 0., 0., 0., 0., 0., 0.,
          0., 0., 0., 0., 0., 0., 0., 0., 0., 0., 0., 0., 0., 0., 0., 0.,
          0., 0., 0., 0., 0., 0., 0., 0., 0., 0., 0., 0., 0., 0., 0., 0.,
          0., 0., 0., 0., 0., 0., 0., 2.50000000e-01, 2.50000000e-01, 0.,
          0., 0., 0., 0., 0., 0., 0., 0., 0., 0., 0., 0., 0., 0., 0., 0.,
          0., 0., 0., 0., 0., 0., 0., 0., 0., 0., 0., 0., 0., 0., 0., 0. ]
      - [ 0., 0., 0., 0., 0., 0., 0., 0., 0., 0., 0., 0., 0., 0., 0., 0.,
          0., 0., 0., 0., 5.00000000e-01, 0., 0., 0., 0., 0., 0., 0., 0.,
          0., 0., 0., 0., 0., 0., 0., 0., 0., 0., 0., 0., 0., 0., 0., 0.,
          0., 0., 0., 0., 0., 0., 0., 0., 5.00000000e-01, 0., 0., 0., 0.,
          0., 0., 0., 0., 0., 0., 0., 0., 0., 0., 0., 0., 0., 0., 0., 0.,
          0., 0., 0., 0., 0., 0., 0., 0., 0., 0., 0., 0., 0., 0., 0., 0.,
          0., 0., 0., 0., 0., 0., 0., 0., 0., 0. ]
      - [ 0., 0., 0., 0., 0., 0., 0., 0., 0., 0., 0., 0., 1.00000001e-01,
          0., 0., 0., 0., 0., 0., 1.00000001e-01, 0., 0., 2.00000003e-01,
          0., 0., 1.00000001e-01, 0., 0., 0., 0., 1.00000001e-01, 0., 0.,
          0., 0., 0., 0., 0., 0., 0., 0., 1.00000001e-01, 0., 0., 0., 0.,
          0., 0., 0., 0., 0., 0., 0., 0., 0., 0., 0., 0., 0., 0., 0., 0.,
          0., 0., 0., 0., 0., 0., 0., 0., 0., 0., 0., 0., 0., 0., 0., 0.,
          0., 0., 0., 1.00000001e-01, 0., 0., 0., 0., 0., 0., 0., 0., 0.,
          0., 0., 0., 2.00000003e-01, 0., 0., 0., 0., 0. ]
      - [ 7.50000030e-02, 0., 5.00000007e-02, 0., 0., 0., 2.50000004e-02,
          5.00000007e-02, 0., 2.50000004e-02, 0., 0., 2.50000004e-02, 0.,
          0., 0., 0., 0., 0., 0., 0., 0., 0., 0., 0., 2.50000004e-02,
          2.50000004e-02, 5.00000007e-02, 0., 0., 0., 0., 2.50000004e-02,
          2.50000004e-02, 0., 7.50000030e-02, 0., 0., 2.50000004e-02, 0.,
          0., 5.00000007e-02, 0., 0., 2.50000004e-02, 0., 5.00000007e-02,
          0., 5.00000007e-02, 0., 0., 0., 0., 0., 0., 0., 2.50000004e-02,
          0., 0., 2.50000004e-02, 0., 0., 0., 2.50000004e-02, 0., 0., 0.,
          2.50000004e-02, 0., 0., 0., 0., 0., 0., 2.50000004e-02,
          2.50000004e-02, 2.50000004e-02, 0., 2.50000004e-02, 0.,
          2.50000004e-02, 2.50000004e-02, 0., 2.50000004e-02, 0., 0., 0.,
          0., 2.50000004e-02, 0., 0., 0., 0., 0., 0., 0., 0., 0., 0.,
          2.50000004e-02 ]
      - [ 0., 1.66666672e-01, 0., 0., 0., 0., 0., 0., 0., 0., 0., 0., 0.,
          0., 0., 0., 0., 0., 0., 0., 0., 0., 0., 0., 0., 0.,
          1.66666672e-01, 0., 0., 0., 0., 0., 1.66666672e-01, 0., 0.,
          1.66666672e-01, 0., 1.66666672e-01, 0., 0., 0., 0., 0., 0., 0.,
          0., 0., 0., 0., 0., 0., 0., 0., 0., 0., 0., 0., 0., 0., 0., 0.,
          0., 0., 0., 0., 0., 0., 0., 0., 0., 0., 0., 0., 0.,
          1.66666672e-01, 0., 0., 0., 0., 0., 0., 0., 0., 0., 0., 0., 0.,
          0., 0., 0., 0., 0., 0., 0., 0., 0., 0., 0., 0., 0. ]
      - [ 0., 0., 0., 0., 0., 0., 0., 0., 0., 0., 1.30434781e-01,
          4.34782617e-02, 0., 0., 4.34782617e-02, 4.34782617e-02, 0., 0.,
          0., 0., 0., 0., 8.69565234e-02, 4.34782617e-02, 0., 0., 0.,
          4.34782617e-02, 4.34782617e-02, 4.34782617e-02, 0.,
          4.34782617e-02, 0., 0., 0., 0., 4.34782617e-02, 0.,
          4.34782617e-02, 4.34782617e-02, 0., 0., 0., 0., 0., 0., 0., 0.,
          0., 8.69565234e-02, 0., 0., 0., 0., 0., 0., 0., 0., 0.,
          4.34782617e-02, 0., 0., 0., 0., 0., 0., 0., 0., 0.,
          4.34782617e-02, 0., 0., 0., 0., 0., 0., 0., 0., 0., 0., 0.,
          4.34782617e-02, 0., 0., 4.34782617e-02, 0., 0., 0., 0., 0., 0.,
          0., 0., 0., 4.34782617e-02, 0., 0., 0., 0., 0. ]
      - [ 0., 0., 0., 0., 0., 0., 0., 6.66666701e-02, 0., 0., 0., 0., 0.,
          0., 0., 0., 0., 0., 0., 0., 0., 0., 1.33333340e-01,
          6.66666701e-02, 0., 0., 0., 0., 0., 0., 0., 1.33333340e-01, 0.,
          0., 0., 0., 1.33333340e-01, 0., 0., 0., 0., 0., 0., 0., 0., 0.,
          0., 0., 0., 0., 0., 0., 6.66666701e-02, 0., 0., 0., 0., 0., 0.,
          6.66666701e-02, 0., 0., 0., 0., 6.66666701e-02, 0., 0., 0., 0.,
          0., 0., 0., 0., 0., 0., 0., 0., 0., 6.66666701e-02, 0., 0.,
          6.66666701e-02, 0., 0., 0., 0., 0., 0., 0., 0., 0., 0., 0., 0.,
          6.66666701e-02, 0., 0., 0., 6.66666701e-02, 0. ]
      - [ 0., 0., 0., 0., 8.33333358e-02, 0., 0., 0., 0., 8.33333358e-02,
          0., 0., 0., 8.33333358e-02, 0., 0., 0., 0., 0., 0., 0., 0., 0.,
          0., 0., 0., 0., 0., 0., 0., 0., 0., 0., 0., 0., 8.33333358e-02,
          0., 0., 0., 0., 0., 0., 0., 0., 0., 0., 0., 0., 0., 0., 0.,
          8.33333358e-02, 0., 8.33333358e-02, 0., 0., 0., 0., 0., 0., 0.,
          8.33333358e-02, 8.33333358e-02, 0., 0., 0., 0., 0., 0., 0.,
          8.33333358e-02, 0., 0., 0., 0., 0., 0., 0., 0., 0.,
          8.33333358e-02, 8.33333358e-02, 0., 0., 0., 0., 0., 0., 0., 0.,
          0., 0., 0., 0., 0., 0., 0., 0., 0., 8.33333358e-02 ]
      - [ 2.56410260e-02, 0., 5.12820520e-02, 2.56410260e-02,
          2.56410260e-02, 0., 5.12820520e-02, 0., 2.56410260e-02,
          5.12820520e-02, 2.56410260e-02, 0., 5.12820520e-02, 0., 0.,
          2.56410260e-02, 0., 0., 0., 0., 0., 0., 0., 0., 2.56410260e-02,
          0., 0., 0., 0., 0., 0., 0., 2.56410260e-02, 0., 2.56410260e-02,
          2.56410260e-02, 2.56410260e-02, 2.56410260e-02, 0.,
          2.56410260e-02, 0., 0., 0., 0., 2.56410260e-02, 0.,
          5.12820520e-02, 0., 0., 2.56410260e-02, 0., 0., 0., 0., 0., 0.,
          0., 0., 0., 0., 0., 0., 0., 5.12820520e-02, 0., 0., 0., 0., 0.,
          0., 0., 0., 0., 0., 0., 2.56410260e-02, 0., 0., 2.56410260e-02,
          0., 7.69230798e-02, 2.56410260e-02, 0., 0., 2.56410260e-02, 0.,
          2.56410260e-02, 2.56410260e-02, 0., 0., 0., 2.56410260e-02, 0.,
          0., 0., 0., 2.56410260e-02, 2.56410260e-02, 0., 0. ]
      - [ 0., 0., 0., 0., 0., 0., 0., 0., 0., 0., 0., 0., 0., 0., 0., 0.,
          0., 0., 0., 0., 0., 0., 0., 0., 0., 0., 0., 0., 0., 0., 0., 0.,
          0., 0., 0., 1.81818187e-01, 1.81818187e-01, 0., 0., 0., 0., 0.,
          0., 0., 0., 0., 0., 0., 0., 9.09090936e-02, 0., 0., 0., 0., 0.,
          1.81818187e-01, 0., 0., 0., 0., 0., 0., 0., 0., 0., 0., 0., 0.,
          0., 0., 0., 0., 0., 0., 0., 0., 1.81818187e-01, 0.,
          9.09090936e-02, 0., 0., 0., 0., 0., 0., 0., 0., 9.09090936e-02,
          0., 0., 0., 0., 0., 0., 0., 0., 0., 0., 0., 0. ]
      - [ 0., 0., 0., 0., 0., 0., 0., 0., 0., 0., 0., 0., 1.81818187e-01,
          0., 0., 0., 0., 0., 0., 0., 0., 1.81818187e-01, 0.,
          9.09090936e-02, 0., 0., 0., 0., 0., 0., 0., 0., 0., 0., 0., 0.,
          0., 0., 0., 0., 0., 0., 0., 0., 0., 0., 0., 0., 0., 0., 0., 0.,
          0., 0., 0., 0., 0., 0., 0., 0., 0., 0., 0., 0., 0., 0., 0., 0.,
          0., 0., 0., 5.45454562e-01, 0., 0., 0., 0., 0., 0., 0., 0., 0.,
          0., 0., 0., 0., 0., 0., 0., 0., 0., 0., 0., 0., 0., 0., 0., 0.,
          0., 0., 0. ]
      - [ 0., 0., 0., 0., 8.33333358e-02, 0., 0., 0., 8.33333358e-02, 0.,
          0., 0., 0., 0., 0., 8.33333358e-02, 0., 0., 0., 0., 0., 0., 0.,
          0., 0., 8.33333358e-02, 8.33333358e-02, 0., 0., 0., 0., 0., 0.,
          0., 0., 8.33333358e-02, 0., 0., 0., 0., 0., 0., 0., 0., 0., 0.,
          0., 0., 0., 8.33333358e-02, 0., 0., 0., 0., 0., 0., 0., 0., 0.,
          0., 0., 0., 0., 0., 8.33333358e-02, 0., 0., 0., 0., 0., 0., 0.,
          0., 0., 0., 0., 0., 8.33333358e-02, 8.33333358e-02, 0., 0., 0.,
          0., 0., 0., 8.33333358e-02, 0., 0., 0., 0., 0., 0.,
          8.33333358e-02, 0., 0., 0., 0., 0., 0., 0. ]
      - [ 0., 9.09090936e-02, 0., 0., 9.09090936e-02, 0., 0., 0., 0., 0.,
          0., 0., 0., 0., 0., 0., 0., 0., 0., 0., 0., 0., 0.,
          9.09090936e-02, 0., 0., 9.09090936e-02, 0., 0., 0.,
          9.09090936e-02, 0., 0., 0., 0., 0., 0., 0., 0., 0., 0., 0., 0.,
          0., 0., 0., 0., 0., 0., 0., 0., 0., 0., 0., 0., 0., 0., 0., 0.,
          0., 0., 0., 0., 9.09090936e-02, 0., 0., 0., 0., 9.09090936e-02,
          0., 0., 0., 0., 0., 0., 0., 0., 0., 0., 9.09090936e-02, 0., 0.,
          0., 0., 0., 0., 0., 0., 0., 0., 0., 0., 0., 0., 2.72727281e-01,
          0., 0., 0., 0., 0. ]
      - [ 0., 0., 0., 0., 8.33333358e-02, 0., 0., 0., 0., 0., 0., 0., 0.,
          0., 0., 0., 0., 0., 0., 0., 0., 0., 0., 0., 0., 8.33333358e-02,
          0., 0., 0., 0., 8.33333358e-02, 0., 0., 0., 0., 0., 0., 0., 0.,
          0., 0., 8.33333358e-02, 0., 0., 0., 0., 0., 0., 8.33333358e-02,
          0., 0., 0., 0., 0., 0., 0., 0., 0., 8.33333358e-02, 0., 0., 0.,
          0., 0., 0., 0., 0., 0., 0., 0., 0., 0., 0., 8.33333358e-02, 0.,
          0., 0., 0., 0., 0., 0., 0., 0., 8.33333358e-02, 0., 0., 0.,
          8.33333358e-02, 1.66666672e-01, 0., 0., 0., 0., 0., 0., 0.,
          8.33333358e-02, 0., 0., 0. ]
      - [ 0., 0., 7.14285746e-02, 0., 0., 0., 0., 0., 0., 1.42857149e-01,
          0., 0., 0., 0., 0., 0., 0., 0., 0., 7.14285746e-02, 0., 0., 0.,
          0., 0., 0., 0., 7.14285746e-02, 0., 0., 0., 0., 0., 0., 0.,
          1.42857149e-01, 0., 0., 0., 0., 0., 0., 0., 0., 0., 0., 0., 0.,
          0., 7.14285746e-02, 0., 7.14285746e-02, 0., 0., 0.,
          7.14285746e-02, 0., 0., 0., 0., 0., 0., 0., 0., 0.,
          1.42857149e-01, 0., 0., 0., 0., 0., 0., 0., 0., 0., 0., 0., 0.,
          0., 0., 0., 0., 0., 0., 0., 7.14285746e-02, 0., 0., 0., 0., 0.,
          0., 0., 0., 0., 0., 0., 7.14285746e-02, 0., 0. ]
      - [ 8.33333358e-02, 0., 1.66666672e-01, 0., 0., 0., 0., 0., 0., 0.,
          0., 0., 0., 8.33333358e-02, 0., 0., 0., 0., 0., 0., 0., 0., 0.,
          0., 0., 0., 0., 0., 0., 0., 0., 0., 0., 0., 8.33333358e-02, 0.,
          0., 0., 0., 8.33333358e-02, 0., 0., 0., 0., 8.33333358e-02, 0.,
          0., 0., 0., 0., 8.33333358e-02, 0., 0., 0., 0., 0., 0., 0., 0.,
          0., 0., 0., 0., 0., 0., 0., 8.33333358e-02, 0., 0., 0., 0., 0.,
          0., 0., 0., 0., 0., 0., 0., 0., 0., 0., 1.66666672e-01, 0., 0.,
          0., 0., 0., 0., 0., 0., 8.33333358e-02, 0., 0., 0., 0., 0., 0.,
          0., 0. ]
      - [ 0., 0., 0., 0., 0., 0., 5.26315793e-02, 0., 0., 0., 0., 0., 0.,
          0., 0., 0., 5.26315793e-02, 0., 0., 5.26315793e-02, 0., 0., 0.,
          0., 0., 0., 0., 0., 0., 0., 0., 0., 0., 0., 5.26315793e-02,
          5.26315793e-02, 5.26315793e-02, 0., 5.26315793e-02, 0., 0., 0.,
          5.26315793e-02, 0., 0., 0., 5.26315793e-02, 0., 0.,
          1.05263159e-01, 0., 0., 5.26315793e-02, 0., 0., 0., 0., 0., 0.,
          0., 0., 0., 0., 5.26315793e-02, 0., 0., 0., 0., 0., 0., 0., 0.,
          0., 0., 0., 5.26315793e-02, 5.26315793e-02, 0., 0., 0., 0., 0.,
          0., 5.26315793e-02, 5.26315793e-02, 5.26315793e-02, 0., 0., 0.,
          0., 0., 5.26315793e-02, 0., 0., 0., 0., 0., 0., 0., 0. ]
      - [ 0., 0., 7.69230798e-02, 0., 0., 0., 0., 0., 0., 0., 0., 0., 0.,
          0., 0., 0., 0., 0., 0., 0., 0., 0., 3.07692319e-01, 0., 0., 0.,
          0., 7.69230798e-02, 0., 0., 7.69230798e-02, 0., 0., 0., 0., 0.,
          0., 0., 0., 0., 0., 7.69230798e-02, 0., 0., 0., 0., 0., 0., 0.,
          0., 0., 0., 0., 0., 0., 0., 0., 0., 0., 0., 0., 0., 0., 0.,
          7.69230798e-02, 0., 0., 0., 0., 0., 0., 0., 0., 0., 0., 0., 0.,
          0., 0., 0., 0., 0., 0., 0., 0., 1.53846160e-01, 0., 0., 0., 0.,
          0., 0., 0., 0., 1.53846160e-01, 0., 0., 0., 0., 0. ]
      - [ 0., 4.54545468e-02, 0., 4.54545468e-02, 0., 0., 0., 0., 0.,
          4.54545468e-02, 0., 0., 0., 0., 0., 4.54545468e-02,
          4.54545468e-02, 0., 0., 0., 0., 0., 9.09090936e-02, 0., 0., 0.,
          0., 0., 4.54545468e-02, 0., 1.36363640e-01, 4.54545468e-02, 0.,
          0., 0., 0., 0., 0., 0., 0., 0., 0., 0., 0., 0., 4.54545468e-02,
          0., 9.09090936e-02, 0., 0., 0., 0., 0., 0., 0., 0., 0., 0., 0.,
          0., 0., 0., 0., 0., 4.54545468e-02, 0., 0., 0., 0.,
          4.54545468e-02, 0., 0., 0., 0., 0., 0., 0., 4.54545468e-02, 0.,
          0., 0., 0., 0., 0., 4.54545468e-02, 4.54545468e-02,
          4.54545468e-02, 0., 0., 0., 0., 0., 0., 0., 4.54545468e-02, 0.,
          0., 0., 0., 0. ]
      - [ 0., 0., 6.66666701e-02, 0., 0., 0., 0., 0., 0., 0., 0., 0.,
          6.66666701e-02, 6.66666701e-02, 6.66666701e-02, 0., 0., 0., 0.,
          0., 0., 0., 0., 6.66666701e-02, 0., 0., 6.66666701e-02,
          6.66666701e-02, 0., 0., 0., 0., 0., 0., 0., 0., 6.66666701e-02,
          6.66666701e-02, 0., 0., 0., 0., 0., 0., 0., 0., 0., 0., 0., 0.,
          0., 0., 0., 0., 0., 0., 0., 0., 0., 0., 0., 0., 0., 0., 0., 0.,
          0., 0., 6.66666701e-02, 0., 6.66666701e-02, 0., 0., 0., 0., 0.,
          0., 0., 6.66666701e-02, 0., 0., 0., 6.66666701e-02, 0., 0., 0.,
          0., 0., 0., 0., 0., 0., 0., 0., 0., 0., 0., 0., 6.66666701e-02,
          6.66666701e-02 ]
      - [ 0., 0., 9.09090936e-02, 0., 0., 0., 0., 0., 0., 0., 0., 0., 0.,
          0., 0., 0., 0., 0., 0., 9.09090936e-02, 0., 0., 2.72727281e-01,
          0., 0., 0., 0., 9.09090936e-02, 0., 0., 1.81818187e-01, 0., 0.,
          9.09090936e-02, 0., 0., 0., 0., 0., 0., 0., 0., 0., 0., 0., 0.,
          0., 0., 0., 0., 0., 0., 0., 0., 0., 0., 0., 0., 0., 0., 0., 0.,
          0., 0., 0., 0., 0., 0., 0., 0., 0., 0., 0., 0., 0., 0., 0., 0.,
          0., 0., 0., 0., 0., 0., 0., 9.09090936e-02, 0., 0., 0., 0.,
          9.09090936e-02, 0., 0., 0., 0., 0., 0., 0., 0., 0. ]
      - [ 0., 0., 0., 0., 0., 0., 0., 0., 0., 0., 0., 0., 0., 0., 0., 0.,
          0., 0., 0., 0., 0., 0., 0., 0., 0., 0., 0., 0., 0., 0., 0., 0.,
          0., 0., 0., 0., 0., 0., 0., 0., 0., 0., 0., 5.00000000e-01, 0.,
          0., 5.00000000e-01, 0., 0., 0., 0., 0., 0., 0., 0., 0., 0., 0.,
          0., 0., 0., 0., 0., 0., 0., 0., 0., 0., 0., 0., 0., 0., 0., 0.,
          0., 0., 0., 0., 0., 0., 0., 0., 0., 0., 0., 0., 0., 0., 0., 0.,
          0., 0., 0., 0., 0., 0., 0., 0., 0., 0. ]
      - [ 0., 8.33333358e-02, 0., 0., 0., 1.66666672e-01, 0., 0., 0., 0.,
          0., 0., 0., 0., 8.33333358e-02, 0., 0., 0., 0., 0., 0., 0., 0.,
          0., 0., 0., 0., 0., 0., 0., 0., 0., 0., 0., 0., 8.33333358e-02,
          0., 0., 0., 0., 0., 0., 0., 0., 0., 0., 0., 8.33333358e-02, 0.,
          0., 0., 0., 0., 0., 0., 0., 0., 8.33333358e-02, 8.33333358e-02,
          0., 0., 8.33333358e-02, 0., 0., 0., 0., 0., 0., 0., 0.,
          8.33333358e-02, 0., 0., 0., 0., 0., 0., 8.33333358e-02, 0., 0.,
          0., 0., 0., 0., 0., 0., 0., 0., 0., 0., 0., 0., 0., 0., 0., 0.,
          8.33333358e-02, 0., 0., 0. ]
      - [ 1.00000009e-01, 0., 3.33333351e-02, 0., 0., 0., 0.,
          3.33333351e-02, 0., 0., 3.33333351e-02, 0., 0., 0., 0., 0., 0.,
          0., 0., 3.33333351e-02, 0., 0., 6.66666701e-02, 6.66666701e-02,
          0., 3.33333351e-02, 0., 0., 3.33333351e-02, 0., 0.,
          6.66666701e-02, 0., 0., 0., 3.33333351e-02, 0., 0., 0., 0., 0.,
          0., 0., 0., 0., 0., 0., 0., 0., 0., 3.33333351e-02, 0., 0., 0.,
          0., 0., 0., 0., 0., 0., 0., 0., 0., 3.33333351e-02, 0.,
          3.33333351e-02, 0., 0., 0., 0., 0., 0., 3.33333351e-02, 0., 0.,
          0., 3.33333351e-02, 0., 3.33333351e-02, 0., 0., 3.33333351e-02,
          0., 0., 0., 0., 6.66666701e-02, 0., 0., 0., 3.33333351e-02, 0.,
          3.33333351e-02, 0., 1.00000009e-01, 0., 0., 0., 0., 0. ]
      - [ 0., 0., 0., 0., 0., 0., 0., 0., 0., 0., 0., 0., 7.69230798e-02,
          0., 0., 0., 0., 0., 0., 7.69230798e-02, 0., 0., 0., 0., 0., 0.,
          0., 0., 0., 7.69230798e-02, 0., 0., 0., 0., 0., 0.,
          7.69230798e-02, 0., 0., 0., 0., 0., 0., 0., 0., 0., 0., 0., 0.,
          0., 0., 0., 0., 7.69230798e-02, 0., 0., 0., 0., 0., 0., 0., 0.,
          0., 7.69230798e-02, 0., 0., 0., 7.69230798e-02, 0., 0., 0., 0.,
          1.53846160e-01, 0., 7.69230798e-02, 0., 0., 0., 0., 0., 0.,
          7.69230798e-02, 0., 0., 0., 7.69230798e-02, 0., 0.,
          7.69230798e-02, 0., 0., 0., 0., 0., 0., 0., 0., 0., 0., 0. ]
      - [ 0., 0., 0., 0., 0., 0., 0., 1.81818187e-01, 0., 0., 0., 0., 0.,
          0., 0., 0., 0., 0., 0., 0., 0., 0., 0., 0., 0., 0., 0.,
          9.09090936e-02, 0., 0., 0., 0., 0., 0., 0., 0., 1.81818187e-01,
          0., 0., 0., 0., 0., 9.09090936e-02, 0., 9.09090936e-02, 0., 0.,
          0., 0., 0., 0., 0., 0., 0., 0., 0., 0., 0., 0., 0., 0., 0., 0.,
          0., 9.09090936e-02, 0., 0., 0., 0., 0., 0., 9.09090936e-02, 0.,
          0., 9.09090936e-02, 0., 0., 0., 0., 0., 0., 0., 9.09090936e-02,
          0., 0., 0., 0., 0., 0., 0., 0., 0., 0., 0., 0., 0., 0., 0., 0.,
          0. ]
      - [ 4.76190485e-02, 0., 0., 0., 0., 0., 0., 0., 0., 0., 0., 0., 0.,
          0., 0., 0., 0., 0., 0., 0., 4.76190485e-02, 1.90476194e-01, 0.,
          0., 0., 0., 0., 0., 0., 0., 0., 1.42857149e-01, 0., 0., 0., 0.,
          0., 0., 0., 0., 0., 0., 9.52380970e-02, 0., 0., 0., 0., 0., 0.,
          0., 4.76190485e-02, 0., 0., 4.76190485e-02, 4.76190485e-02, 0.,
          0., 0., 0., 0., 0., 0., 4.76190485e-02, 0., 4.76190485e-02, 0.,
          0., 0., 0., 0., 0., 9.52380970e-02, 0., 0., 0., 0., 0., 0.,
          4.76190485e-02, 4.76190485e-02, 0., 0., 0., 0., 0.,
          4.76190485e-02, 0., 0., 0., 0., 0., 0., 0., 0., 0., 0., 0., 0.,
          0., 0. ]
      - [ 0., 0., 0., 4.54545468e-02, 0., 0., 0., 0., 4.54545468e-02, 0.,
          0., 0., 0., 0., 0., 0., 0., 0., 0., 0., 0., 4.54545468e-02, 0.,
          0., 0., 0., 9.09090936e-02, 0., 0., 0., 0., 0., 1.36363640e-01,
          0., 0., 0., 0., 0., 0., 0., 0., 0., 4.54545468e-02, 0., 0., 0.,
          4.54545468e-02, 0., 0., 0., 0., 0., 0., 0., 0., 0., 0.,
          4.54545468e-02, 0., 0., 9.09090936e-02, 0., 0., 9.09090936e-02,
          0., 4.54545468e-02, 0., 0., 0., 4.54545468e-02, 0.,
          4.54545468e-02, 4.54545468e-02, 0., 0., 0., 0., 0., 0., 0., 0.,
          0., 0., 4.54545468e-02, 0., 0., 0., 0., 0., 0., 4.54545468e-02,
          4.54545468e-02, 0., 0., 0., 0., 0., 0., 0., 0. ]
      - [ 0., 0., 0., 0., 0., 0., 0., 0., 0., 0., 0., 0., 0., 0., 0., 0.,
          0., 0., 0., 0., 0., 0., 0., 0., 0., 0., 0., 0., 0., 0., 0., 0.,
          0., 0., 0., 0., 0., 2.50000000e-01, 0., 2.50000000e-01, 0., 0.,
          0., 0., 0., 0., 0., 0., 0., 0., 0., 0., 0., 0., 0., 0., 0., 0.,
          0., 0., 0., 0., 0., 0., 0., 0., 0., 0., 0., 0., 0., 0., 0.,
          2.50000000e-01, 0., 2.50000000e-01, 0., 0., 0., 0., 0., 0., 0.,
          0., 0., 0., 0., 0., 0., 0., 0., 0., 0., 0., 0., 0., 0., 0., 0.,
          0. ]
      - [ 0., 0., 0., 0., 0., 0., 0., 0., 0., 7.69230798e-02, 0., 0., 0.,
          0., 0., 0., 0., 0., 0., 0., 0., 0., 7.69230798e-02, 0., 0.,
          7.69230798e-02, 0., 0., 0., 0., 7.69230798e-02, 0., 0., 0., 0.,
          7.69230798e-02, 0., 0., 0., 0., 0., 0., 7.69230798e-02, 0.,
          7.69230798e-02, 0., 0., 0., 0., 0., 7.69230798e-02, 0., 0., 0.,
          0., 0., 0., 0., 0., 0., 0., 0., 0., 0., 0., 0., 0., 0., 0.,
          7.69230798e-02, 0., 0., 0., 0., 0., 7.69230798e-02,
          7.69230798e-02, 7.69230798e-02, 0., 0., 0., 0., 0., 0., 0., 0.,
          0., 0., 0., 0., 0., 0., 0., 0., 0., 0., 0., 7.69230798e-02, 0.,
          0. ]
      - [ 1.66666672e-01, 0., 0., 0., 0., 0., 0., 0., 0., 0.,
          1.66666672e-01, 0., 0., 0., 0., 0., 0., 0., 0., 0., 0., 0., 0.,
          1.66666672e-01, 0., 0., 0., 0., 0., 0., 0., 0., 0.,
          1.66666672e-01, 0., 0., 0., 0., 0., 0., 0., 0., 0., 0., 0., 0.,
          0., 0., 0., 0., 0., 0., 0., 0., 0., 0., 0., 0., 0., 0., 0., 0.,
          1.66666672e-01, 0., 0., 0., 0., 0., 0., 0., 0., 0., 0., 0., 0.,
          0., 0., 0., 0., 0., 0., 0., 0., 0., 0., 0., 0., 0.,
          1.66666672e-01, 0., 0., 0., 0., 0., 0., 0., 0., 0., 0., 0. ]
      - [ 0., 0., 0., 0., 0., 0., 0., 0., 0., 0., 0., 0., 0., 0., 0., 0.,
          0., 0., 0., 0., 0., 0., 0., 0., 0., 0., 0., 0., 0., 0., 0., 0.,
          0., 0., 0., 0., 0., 0., 0., 0., 0., 0., 0., 0., 0., 0., 0., 0.,
          0., 0., 0., 0., 0., 0., 0., 0., 3.33333343e-01, 0., 0., 0., 0.,
          0., 0., 0., 0., 0., 0., 0., 3.33333343e-01, 3.33333343e-01, 0.,
          0., 0., 0., 0., 0., 0., 0., 0., 0., 0., 0., 0., 0., 0., 0., 0.,
          0., 0., 0., 0., 0., 0., 0., 0., 0., 0., 0., 0., 0. ]
      - [ 0., 0., 0., 0., 0., 0., 0., 0., 0., 0., 0., 0., 0., 0., 0., 0.,
          0., 0., 0., 0., 0., 0., 0., 0., 0., 0., 0., 0., 0., 0., 0., 0.,
          0., 2.50000000e-01, 0., 0., 0., 0., 0., 0., 0., 0.,
          2.50000000e-01, 0., 0., 0., 0., 0., 2.50000000e-01, 0., 0., 0.,
          0., 0., 0., 0., 0., 0., 0., 0., 0., 0., 0., 0., 0., 0., 0., 0.,
          0., 0., 0., 0., 0., 0., 0., 0., 0., 0., 0., 0., 0., 0., 0., 0.,
          0., 0., 0., 0., 2.50000000e-01, 0., 0., 0., 0., 0., 0., 0., 0.,
          0., 0., 0. ]
      - [ 0., 0., 5.88235296e-02, 0., 0., 0., 0., 0., 0., 0., 0., 0., 0.,
          0., 0., 0., 0., 0., 0., 0., 1.76470593e-01, 0., 0., 0., 0., 0.,
          0., 0., 0., 0., 0., 0., 0., 0., 0., 5.88235296e-02, 0., 0.,
          5.88235296e-02, 0., 0., 0., 0., 0., 0., 0., 0., 0., 0., 0., 0.,
          0., 0., 0., 0., 0., 0., 0., 0., 0., 0., 1.17647059e-01, 0., 0.,
          0., 0., 0., 0., 0., 0., 5.88235296e-02, 0., 0., 0.,
          5.88235296e-02, 0., 5.88235296e-02, 0., 0., 0., 1.17647059e-01,
          0., 0., 5.88235296e-02, 0., 0., 0., 0., 0., 0., 5.88235296e-02,
          5.88235296e-02, 0., 0., 0., 0., 5.88235296e-02, 0., 0., 0. ]
      - [ 0., 0., 0., 0., 0., 0., 0., 5.00000007e-02, 0., 0., 0.,
          5.00000007e-02, 0., 0., 0., 0., 5.00000007e-02, 5.00000007e-02,
          0., 1.00000001e-01, 5.00000007e-02, 0., 0., 0., 0., 0., 0., 0.,
          0., 0., 0., 0., 0., 0., 0., 5.00000007e-02, 5.00000007e-02, 0.,
          0., 0., 0., 0., 0., 0., 0., 0., 0., 0., 0., 5.00000007e-02, 0.,
          0., 0., 0., 0., 0., 5.00000007e-02, 0., 0., 0., 0., 0., 0., 0.,
          0., 5.00000007e-02, 1.00000001e-01, 0., 0., 0., 0., 0.,
          5.00000007e-02, 5.00000007e-02, 0., 0., 5.00000007e-02, 0., 0.,
          0., 0., 0., 0., 0., 0., 0., 5.00000007e-02, 0., 0., 0., 0., 0.,
          0., 0., 0., 0., 5.00000007e-02, 5.00000007e-02, 0., 0. ]
      - [ 0., 0., 4.16666679e-02, 0., 0., 0., 4.16666679e-02, 0., 0., 0.,
          0., 8.33333358e-02, 0., 0., 0., 8.33333358e-02, 0., 0.,
          4.16666679e-02, 0., 0., 0., 0., 4.16666679e-02, 4.16666679e-02,
          0., 4.16666679e-02, 4.16666679e-02, 0., 0., 0., 0., 0.,
          4.16666679e-02, 4.16666679e-02, 0., 0., 0., 0., 0., 0., 0., 0.,
          8.33333358e-02, 0., 0., 0., 0., 0., 0., 0., 0., 0., 0., 0., 0.,
          0., 0., 0., 0., 0., 0., 0., 4.16666679e-02, 0., 0.,
          1.25000000e-01, 0., 0., 0., 0., 0., 4.16666679e-02,
          4.16666679e-02, 0., 0., 0., 0., 0., 0., 0., 0., 0., 0., 0., 0.,
          4.16666679e-02, 0., 0., 0., 0., 0., 0., 0., 0., 4.16666679e-02,
          4.16666679e-02, 0., 0., 0. ]
      - [ 0., 0., 0., 0., 0., 0., 0., 0., 7.69230798e-02, 0.,
          7.69230798e-02, 0., 0., 0., 0., 0., 0., 0., 0., 0., 0.,
          7.69230798e-02, 0., 0., 0., 0., 0., 0., 0., 0., 1.53846160e-01,
          0., 0., 0., 0., 0., 0., 0., 0., 0., 0., 0., 0., 0., 0., 0., 0.,
          3.07692319e-01, 0., 0., 0., 0., 0., 0., 0., 0., 0., 0., 0., 0.,
          0., 0., 0., 0., 0., 0., 0., 0., 0., 0., 0., 0., 0., 0., 0., 0.,
          0., 7.69230798e-02, 0., 0., 0., 0., 7.69230798e-02, 0., 0., 0.,
          0., 0., 0., 0., 7.69230798e-02, 0., 0., 0., 7.69230798e-02, 0.,
          0., 0., 0., 0. ]
      - [ 0., 0., 0., 0., 0., 0., 0., 0., 0., 0., 0., 1.00000001e-01, 0.,
          5.00000007e-02, 0., 0., 0., 0., 0., 0., 5.00000007e-02, 0.,
          5.00000007e-02, 0., 0., 0., 0., 0., 0., 0., 0., 5.00000007e-02,
          0., 0., 5.00000007e-02, 0., 0., 0., 0., 5.00000007e-02,
          5.00000007e-02, 5.00000007e-02, 5.00000007e-02, 0., 0., 0., 0.,
          0., 0., 0., 0., 0., 0., 0., 5.00000007e-02, 0., 0., 0., 0., 0.,
          0., 0., 0., 0., 5.00000007e-02, 0., 0., 0., 0., 0., 0.,
          1.00000001e-01, 0., 5.00000007e-02, 0., 0., 0., 5.00000007e-02,
          0., 0., 0., 5.00000007e-02, 0., 0., 0., 0., 0., 0.,
          5.00000007e-02, 0., 0., 0., 0., 0., 0., 5.00000007e-02, 0., 0.,
          0., 0. ]
      - [ 0., 0., 0., 0., 0., 0., 0., 0., 0., 0., 0., 0., 0., 0., 0., 0.,
          0., 6.66666687e-01, 0., 0., 0., 0., 0., 0., 0., 0., 0., 0., 0.,
          3.33333343e-01, 0., 0., 0., 0., 0., 0., 0., 0., 0., 0., 0., 0.,
          0., 0., 0., 0., 0., 0., 0., 0., 0., 0., 0., 0., 0., 0., 0., 0.,
          0., 0., 0., 0., 0., 0., 0., 0., 0., 0., 0., 0., 0., 0., 0., 0.,
          0., 0., 0., 0., 0., 0., 0., 0., 0., 0., 0., 0., 0., 0., 0., 0.,
          0., 0., 0., 0., 0., 0., 0., 0., 0., 0. ]
      - [ 0., 1.25000000e-01, 0., 0., 0., 0., 0., 0., 1.25000000e-01, 0.,
          0., 1.25000000e-01, 0., 0., 0., 0., 0., 0., 0., 0., 0., 0.,
          5.00000000e-01, 0., 0., 0., 0., 0., 0., 0., 0., 0., 0., 0., 0.,
          0., 0., 0., 0., 0., 0., 0., 0., 0., 0., 0., 0., 0., 0., 0., 0.,
          0., 0., 0., 0., 0., 0., 0., 0., 0., 0., 0., 0., 0., 0., 0., 0.,
          0., 0., 0., 0., 0., 1.25000000e-01, 0., 0., 0., 0., 0., 0., 0.,
          0., 0., 0., 0., 0., 0., 0., 0., 0., 0., 0., 0., 0., 0., 0., 0.,
          0., 0., 0., 0. ]
      - [ 0., 0., 0., 0., 0., 0., 0., 0., 0., 0., 0., 0., 0., 0., 0., 0.,
          0., 0., 0., 0., 0., 0., 0., 9.09090936e-02, 0., 0., 0.,
          9.09090936e-02, 9.09090936e-02, 0., 0., 0., 0., 0.,
          9.09090936e-02, 0., 0., 0., 0., 0., 0., 0., 0., 9.09090936e-02,
          0., 0., 0., 0., 0., 0., 0., 9.09090936e-02, 0., 0., 0., 0.,
          9.09090936e-02, 0., 0., 0., 9.09090936e-02, 0., 0., 0., 0., 0.,
          9.09090936e-02, 9.09090936e-02, 0., 0., 0., 0., 0., 0., 0., 0.,
          0., 0., 0., 9.09090936e-02, 0., 0., 0., 0., 0., 0., 0., 0., 0.,
          0., 0., 0., 0., 0., 0., 0., 0., 0., 0., 0. ]
      - [ 0., 7.14285746e-02, 0., 0., 0., 0., 0., 7.14285746e-02, 0., 0.,
          0., 0., 0., 0., 0., 0., 0., 0., 0., 0., 0., 0., 0., 0., 0.,
          1.42857149e-01, 0., 0., 0., 0., 0., 0., 0., 0., 0., 0., 0., 0.,
          0., 0., 0., 0., 0., 0., 0., 0., 0., 0., 0., 0., 0., 0., 0., 0.,
          7.14285746e-02, 0., 0., 0., 0., 0., 0., 0., 0., 0., 0., 0., 0.,
          0., 0., 0., 0., 1.42857149e-01, 0., 0., 0., 0., 0.,
          7.14285746e-02, 0., 0., 0., 0., 2.85714298e-01, 0., 0., 0., 0.,
          7.14285746e-02, 7.14285746e-02, 0., 0., 0., 0., 0., 0., 0., 0.,
          0., 0., 0. ]
      - [ 1.42857149e-01, 0., 0., 0., 0., 0., 0., 0., 0., 0., 0., 0., 0.,
          1.42857149e-01, 0., 0., 0., 0., 0., 0., 0., 0., 0., 0., 0., 0.,
          0., 0., 1.42857149e-01, 0., 0., 0., 0., 0., 0., 0., 0., 0., 0.,
          0., 0., 0., 0., 0., 0., 0., 0., 1.42857149e-01, 0., 0., 0., 0.,
          0., 0., 0., 0., 0., 0., 0., 0., 0., 0., 1.42857149e-01, 0., 0.,
          0., 0., 0., 0., 0., 0., 0., 0., 0., 0., 0., 0., 0., 0., 0., 0.,
          0., 0., 0., 0., 0., 0., 0., 0., 0., 0., 1.42857149e-01, 0., 0.,
          1.42857149e-01, 0., 0., 0., 0., 0. ]
      - [ 0., 0., 0., 0., 0., 0., 0., 0., 0., 0., 0., 0., 0., 0., 0., 0.,
          0., 0., 0., 0., 0., 0., 0., 0., 0., 0., 0., 0., 0., 0., 0., 0.,
          0., 0., 0., 0., 0., 0., 0., 0., 0., 0., 0., 0., 0., 0., 0., 0.,
          0., 0., 0., 0., 0., 0., 0., 0., 0., 0., 0., 0., 0., 0.,
          5.00000000e-01, 0., 0., 0., 0., 0., 0., 0., 0., 0., 0., 0., 0.,
          0., 0., 0., 0., 0., 0., 0., 5.00000000e-01, 0., 0., 0., 0., 0.,
          0., 0., 0., 0., 0., 0., 0., 0., 0., 0., 0., 0. ]
      - [ 0., 0., 0., 0., 0., 0., 0., 0., 0., 0., 6.25000000e-02, 0., 0.,
          0., 0., 0., 0., 0., 0., 0., 0., 0., 0., 0., 0., 1.25000000e-01,
          1.25000000e-01, 0., 6.25000000e-02, 0., 0., 0., 0., 0., 0., 0.,
          0., 0., 0., 0., 0., 0., 0., 0., 0., 0., 6.25000000e-02, 0., 0.,
          0., 0., 0., 0., 0., 0., 6.25000000e-02, 6.25000000e-02, 0., 0.,
          6.25000000e-02, 0., 0., 0., 0., 0., 1.25000000e-01, 0., 0., 0.,
          0., 0., 6.25000000e-02, 0., 6.25000000e-02, 0., 0., 0., 0., 0.,
          0., 0., 0., 0., 0., 0., 0., 0., 0., 0., 0., 0., 0.,
          6.25000000e-02, 0., 0., 0., 6.25000000e-02, 0., 0., 0. ]
      - [ 4.54545468e-02, 0., 0., 0., 0., 0., 0., 0., 0., 0.,
          4.54545468e-02, 0., 0., 0., 0., 4.54545468e-02, 0., 0., 0.,
          4.54545468e-02, 0., 0., 0., 0., 0., 0., 0., 4.54545468e-02, 0.,
          4.54545468e-02, 0., 0., 0., 0., 4.54545468e-02, 0., 0., 0., 0.,
          0., 4.54545468e-02, 0., 0., 0., 0., 4.54545468e-02, 0.,
          4.54545468e-02, 0., 4.54545468e-02, 4.54545468e-02, 0., 0.,
          4.54545468e-02, 0., 0., 0., 0., 0., 0., 0., 4.54545468e-02, 0.,
          0., 4.54545468e-02, 0., 0., 0., 4.54545468e-02, 4.54545468e-02,
          0., 4.54545468e-02, 0., 0., 0., 0., 0., 0., 0., 4.54545468e-02,
          0., 4.54545468e-02, 0., 0., 0., 0., 0., 4.54545468e-02, 0., 0.,
          0., 0., 0., 0., 0., 4.54545468e-02, 0., 0., 0., 0. ]
      - [ 0., 0., 0., 0., 0., 0., 0., 2.00000003e-01, 0., 0., 0., 0., 0.,
          0., 0., 0., 0., 2.00000003e-01, 0., 0., 0., 0., 0., 0., 0., 0.,
          0., 0., 0., 0., 0., 0., 0., 0., 0., 0., 0., 0., 0., 0., 0., 0.,
          0., 0., 0., 0., 0., 0., 0., 0., 0., 0., 0., 0., 0., 0., 0., 0.,
          0., 0., 0., 0., 0., 0., 0., 0., 0., 0., 0., 0., 0.,
          6.00000024e-01, 0., 0., 0., 0., 0., 0., 0., 0., 0., 0., 0., 0.,
          0., 0., 0., 0., 0., 0., 0., 0., 0., 0., 0., 0., 0., 0., 0., 0. ]
      - [ 0., 0., 0., 3.33333343e-01, 0., 0., 0., 0., 0., 0., 0., 0., 0.,
          0., 0., 0., 0., 0., 0., 0., 0., 0., 0., 0., 0., 0., 0., 0., 0.,
          0., 0., 0., 0., 0., 0., 0., 0., 0., 0., 0., 0., 0., 0., 0., 0.,
          0., 0., 0., 0., 0., 0., 0., 0., 0., 0., 0., 0., 0., 0., 0., 0.,
          0., 0., 0., 0., 0., 0., 0., 0., 3.33333343e-01, 0.,
          3.33333343e-01, 0., 0., 0., 0., 0., 0., 0., 0., 0., 0., 0., 0.,
          0., 0., 0., 0., 0., 0., 0., 0., 0., 0., 0., 0., 0., 0., 0., 0. ]
      - [ 0., 0., 0., 0., 0., 0., 0., 0., 0., 0., 0., 1.66666672e-01, 0.,
          0., 0., 0., 0., 0., 0., 0., 0., 0., 0., 0., 0., 0., 0., 0., 0.,
          0., 0., 0., 0., 0., 0., 0., 0., 0., 0., 1.66666672e-01,
          1.66666672e-01, 0., 0., 3.33333343e-01, 0., 0., 0., 0., 0., 0.,
          0., 0., 0., 0., 0., 0., 0., 0., 0., 0., 0., 0., 0., 0., 0., 0.,
          0., 0., 0., 0., 0., 0., 0., 0., 0., 0., 0., 0., 0., 0., 0., 0.,
          1.66666672e-01, 0., 0., 0., 0., 0., 0., 0., 0., 0., 0., 0., 0.,
          0., 0., 0., 0., 0. ]
      - [ 0., 0., 0., 5.88235296e-02, 0., 0., 0., 0., 0., 0., 0., 0., 0.,
          0., 0., 0., 0., 0., 0., 0., 0., 1.76470593e-01, 0., 0., 0., 0.,
          0., 0., 0., 5.88235296e-02, 1.17647059e-01, 0., 0., 0., 0.,
          5.88235296e-02, 0., 5.88235296e-02, 0., 5.88235296e-02, 0., 0.,
          0., 0., 0., 0., 0., 0., 0., 5.88235296e-02, 0., 0.,
          5.88235296e-02, 5.88235296e-02, 0., 0., 0., 0., 0., 0., 0., 0.,
          0., 0., 0., 0., 0., 0., 0., 0., 0., 0., 0., 0., 0., 0., 0., 0.,
          5.88235296e-02, 0., 0., 0., 5.88235296e-02, 0., 5.88235296e-02,
          0., 0., 0., 0., 0., 0., 0., 0., 0., 5.88235296e-02, 0., 0., 0.,
          0., 0. ]
      - [ 0., 0., 0., 0., 0., 0., 0., 0., 0., 0., 0., 0., 0., 0., 0., 0.,
          0., 0., 0., 0., 0., 0., 0., 0., 0., 0., 0., 1.11111112e-01, 0.,
          0., 1.11111112e-01, 0., 0., 0., 0., 0., 0., 0., 0., 0., 0., 0.,
